<?xml version="1.0"?>
<MethodSetup Method="BDT::2012_BDT_3">
  <GeneralInfo>
    <Info name="TMVA Release" value="4.2.0 [262656]"/>
    <Info name="ROOT Release" value="5.34/29 [336413]"/>
    <Info name="Creator" value="matt"/>
    <Info name="Date" value="Tue Feb 16 12:13:32 2016"/>
    <Info name="Host" value="Darwin pc7.home 14.1.0 Darwin Kernel Version 14.1.0: Thu Feb 26 19:26:47 PST 2015; root:xnu-2782.10.73~1/RELEASE_X86_64 x86_64"/>
    <Info name="Dir" value="/Users/matt/Scratch/lhcb/LHCbAnalysis/Bs2KstKst"/>
    <Info name="Training events" value="59033"/>
    <Info name="TrainingTime" value="3.81036789e+01"/>
    <Info name="AnalysisType" value="Classification"/>
  </GeneralInfo>
  <Options>
    <Option name="V" modified="Yes">False</Option>
    <Option name="VerbosityLevel" modified="No">Default</Option>
    <Option name="VarTransform" modified="No">None</Option>
    <Option name="H" modified="Yes">False</Option>
    <Option name="CreateMVAPdfs" modified="No">False</Option>
    <Option name="IgnoreNegWeightsInTraining" modified="No">False</Option>
    <Option name="NTrees" modified="Yes">800</Option>
    <Option name="MaxDepth" modified="Yes">3</Option>
    <Option name="MinNodeSize" modified="Yes">5</Option>
    <Option name="nCuts" modified="Yes">20</Option>
    <Option name="BoostType" modified="Yes">AdaBoost</Option>
    <Option name="AdaBoostR2Loss" modified="No">quadratic</Option>
    <Option name="UseBaggedBoost" modified="Yes">True</Option>
    <Option name="Shrinkage" modified="No">1.000000e+00</Option>
    <Option name="AdaBoostBeta" modified="No">5.000000e-01</Option>
    <Option name="UseRandomisedTrees" modified="No">False</Option>
    <Option name="UseNvars" modified="No">4</Option>
    <Option name="UsePoissonNvars" modified="No">True</Option>
    <Option name="BaggedSampleFraction" modified="No">6.000000e-01</Option>
    <Option name="UseYesNoLeaf" modified="No">True</Option>
    <Option name="NegWeightTreatment" modified="Yes">ignorenegweightsintraining</Option>
    <Option name="Css" modified="No">1.000000e+00</Option>
    <Option name="Cts_sb" modified="No">1.000000e+00</Option>
    <Option name="Ctb_ss" modified="No">1.000000e+00</Option>
    <Option name="Cbb" modified="No">1.000000e+00</Option>
    <Option name="NodePurityLimit" modified="No">5.000000e-01</Option>
    <Option name="SeparationType" modified="No">giniindex</Option>
    <Option name="DoBoostMonitor" modified="No">False</Option>
    <Option name="UseFisherCuts" modified="No">False</Option>
    <Option name="MinLinCorrForFisher" modified="No">8.000000e-01</Option>
    <Option name="UseExclusiveVars" modified="No">False</Option>
    <Option name="DoPreselection" modified="No">False</Option>
    <Option name="SigToBkgFraction" modified="No">1.000000e+00</Option>
    <Option name="PruneMethod" modified="No">nopruning</Option>
    <Option name="PruneStrength" modified="No">0.000000e+00</Option>
    <Option name="PruningValFraction" modified="No">5.000000e-01</Option>
    <Option name="nEventsMin" modified="No">0</Option>
    <Option name="UseBaggedGrad" modified="No">False</Option>
    <Option name="GradBaggingFraction" modified="No">6.000000e-01</Option>
    <Option name="UseNTrainEvents" modified="No">0</Option>
    <Option name="NNodesMax" modified="No">0</Option>
  </Options>
  <Variables NVar="12">
    <Variable VarIndex="0" Expression="B_s0_DTF_B_s0_PT" Label="B_s0_DTF_B_s0_PT" Title="B_s0_DTF_B_s0_PT" Unit="" Internal="B_s0_DTF_B_s0_PT" Type="F" Min="1.65378380e+00" Max="7.15647188e+04"/>
    <Variable VarIndex="1" Expression="B_s0_DTF_KST1_PT" Label="B_s0_DTF_KST1_PT" Title="B_s0_DTF_KST1_PT" Unit="" Internal="B_s0_DTF_KST1_PT" Type="F" Min="8.96606750e+02" Max="6.73262500e+04"/>
    <Variable VarIndex="2" Expression="B_s0_DTF_KST2_PT" Label="B_s0_DTF_KST2_PT" Title="B_s0_DTF_KST2_PT" Unit="" Internal="B_s0_DTF_KST2_PT" Type="F" Min="8.76492249e+02" Max="4.87645312e+04"/>
    <Variable VarIndex="3" Expression="max_track_PT" Label="max_track_PT" Title="max_track_PT" Unit="" Internal="max_track_PT" Type="F" Min="1.55742200e+03" Max="5.71502305e+04"/>
    <Variable VarIndex="4" Expression="min_track_PT" Label="min_track_PT" Title="min_track_PT" Unit="" Internal="min_track_PT" Type="F" Min="3.43402191e+02" Max="8.62787012e+03"/>
    <Variable VarIndex="5" Expression="B_s0_ETA" Label="B_s0_ETA" Title="B_s0_ETA" Unit="" Internal="B_s0_ETA" Type="F" Min="1.90870821e+00" Max="9.84165192e+00"/>
    <Variable VarIndex="6" Expression="Kst_ETA" Label="Kst_ETA" Title="Kst_ETA" Unit="" Internal="Kst_ETA" Type="F" Min="1.79824805e+00" Max="5.17120552e+00"/>
    <Variable VarIndex="7" Expression="Kstb_ETA" Label="Kstb_ETA" Title="Kstb_ETA" Unit="" Internal="Kstb_ETA" Type="F" Min="1.75479114e+00" Max="5.24634695e+00"/>
    <Variable VarIndex="8" Expression="max_track_ETA" Label="max_track_ETA" Title="max_track_ETA" Unit="" Internal="max_track_ETA" Type="F" Min="1.73438585e+00" Max="5.01779985e+00"/>
    <Variable VarIndex="9" Expression="min_track_ETA" Label="min_track_ETA" Title="min_track_ETA" Unit="" Internal="min_track_ETA" Type="F" Min="1.71013021e+00" Max="5.11835766e+00"/>
    <Variable VarIndex="10" Expression="B_s0_DIRA_OWNPV" Label="B_s0_DIRA_OWNPV" Title="B_s0_DIRA_OWNPV" Unit="" Internal="B_s0_DIRA_OWNPV" Type="F" Min="9.90228057e-01" Max="1.00000000e+00"/>
    <Variable VarIndex="11" Expression="B_s0_ENDVERTEX_CHI2" Label="B_s0_ENDVERTEX_CHI2" Title="B_s0_ENDVERTEX_CHI2" Unit="" Internal="B_s0_ENDVERTEX_CHI2" Type="F" Min="1.03382561e-02" Max="5.99988098e+01"/>
  </Variables>
  <Spectators NSpec="0"/>
  <Classes NClass="2">
    <Class Name="Signal" Index="0"/>
    <Class Name="Background" Index="1"/>
  </Classes>
  <Transformations NTransformations="0"/>
  <MVAPdfs/>
  <Weights NTrees="800" AnalysisType="0">
    <BinaryTree type="DecisionTree" boostWeight="9.8118458106812423e-01" itree="0">
      <Node pos="s" depth="0" NCoef="0" IVar="0" Cut="5.2049155273437500e+03" cType="0" res="-9.9000000000000000e+01" rms="0.0000000000000000e+00" purity="4.9696499109268188e-01" nType="0">
        <Node pos="l" depth="1" NCoef="0" IVar="11" Cut="2.0047567367553711e+01" cType="1" res="-9.9000000000000000e+01" rms="0.0000000000000000e+00" purity="7.3623615503311157e-01" nType="0">
          <Node pos="l" depth="2" NCoef="0" IVar="-1" Cut="1.1477209091186523e+01" cType="1" res="-9.9000000000000000e+01" rms="0.0000000000000000e+00" purity="8.8891983032226562e-01" nType="1"/>
          <Node pos="r" depth="2" NCoef="0" IVar="-1" Cut="3.7165111541748047e+01" cType="1" res="-9.9000000000000000e+01" rms="0.0000000000000000e+00" purity="1.2986223399639130e-01" nType="-1"/>
        </Node>
        <Node pos="r" depth="1" NCoef="0" IVar="11" Cut="1.1497100830078125e+01" cType="1" res="-9.9000000000000000e+01" rms="0.0000000000000000e+00" purity="2.0045869052410126e-01" nType="0">
          <Node pos="l" depth="2" NCoef="0" IVar="0" Cut="2.9756477050781250e+03" cType="0" res="-9.9000000000000000e+01" rms="0.0000000000000000e+00" purity="3.4790402650833130e-01" nType="0">
            <Node pos="l" depth="3" NCoef="0" IVar="-1" Cut="0.0000000000000000e+00" cType="1" res="-9.9000000000000000e+01" rms="0.0000000000000000e+00" purity="7.0076417922973633e-01" nType="1"/>
            <Node pos="r" depth="3" NCoef="0" IVar="-1" Cut="0.0000000000000000e+00" cType="1" res="-9.9000000000000000e+01" rms="0.0000000000000000e+00" purity="1.6716216504573822e-01" nType="-1"/>
          </Node>
          <Node pos="r" depth="2" NCoef="0" IVar="-1" Cut="1.8428150177001953e+01" cType="1" res="-9.9000000000000000e+01" rms="0.0000000000000000e+00" purity="5.7732023298740387e-02" nType="-1"/>
        </Node>
      </Node>
    </BinaryTree>
    <BinaryTree type="DecisionTree" boostWeight="6.3654026834033772e-01" itree="1">
      <Node pos="s" depth="0" NCoef="0" IVar="11" Cut="1.4291889190673828e+01" cType="1" res="-9.9000000000000000e+01" rms="0.0000000000000000e+00" purity="4.8892253637313843e-01" nType="0">
        <Node pos="l" depth="1" NCoef="0" IVar="0" Cut="5.3051621093750000e+03" cType="0" res="-9.9000000000000000e+01" rms="0.0000000000000000e+00" purity="6.4570701122283936e-01" nType="0">
          <Node pos="l" depth="2" NCoef="0" IVar="-1" Cut="1.0620274658203125e+03" cType="0" res="-9.9000000000000000e+01" rms="0.0000000000000000e+00" purity="8.3603656291961670e-01" nType="1"/>
          <Node pos="r" depth="2" NCoef="0" IVar="0" Cut="2.0257673339843750e+03" cType="0" res="-9.9000000000000000e+01" rms="0.0000000000000000e+00" purity="3.6936748027801514e-01" nType="0">
            <Node pos="l" depth="3" NCoef="0" IVar="-1" Cut="0.0000000000000000e+00" cType="1" res="-9.9000000000000000e+01" rms="0.0000000000000000e+00" purity="5.2061814069747925e-01" nType="1"/>
            <Node pos="r" depth="3" NCoef="0" IVar="-1" Cut="0.0000000000000000e+00" cType="1" res="-9.9000000000000000e+01" rms="0.0000000000000000e+00" purity="1.7638091742992401e-01" nType="-1"/>
          </Node>
        </Node>
        <Node pos="r" depth="1" NCoef="0" IVar="-1" Cut="9.5133654785156250e+02" cType="0" res="-9.9000000000000000e+01" rms="0.0000000000000000e+00" purity="1.8017689883708954e-01" nType="-1"/>
      </Node>
    </BinaryTree>
    <BinaryTree type="DecisionTree" boostWeight="5.3917616586579797e-01" itree="2">
      <Node pos="s" depth="0" NCoef="0" IVar="0" Cut="7.1567944335937500e+03" cType="0" res="-9.9000000000000000e+01" rms="0.0000000000000000e+00" purity="4.7681060433387756e-01" nType="0">
        <Node pos="l" depth="1" NCoef="0" IVar="11" Cut="2.5776615142822266e+01" cType="1" res="-9.9000000000000000e+01" rms="0.0000000000000000e+00" purity="7.1919238567352295e-01" nType="0">
          <Node pos="l" depth="2" NCoef="0" IVar="-1" Cut="8.8138519287109375e+02" cType="0" res="-9.9000000000000000e+01" rms="0.0000000000000000e+00" purity="7.8401517868041992e-01" nType="1"/>
          <Node pos="r" depth="2" NCoef="0" IVar="-1" Cut="0.0000000000000000e+00" cType="1" res="-9.9000000000000000e+01" rms="0.0000000000000000e+00" purity="2.8453049063682556e-01" nType="-1"/>
        </Node>
        <Node pos="r" depth="1" NCoef="0" IVar="11" Cut="1.9999652862548828e+01" cType="1" res="-9.9000000000000000e+01" rms="0.0000000000000000e+00" purity="3.0099853873252869e-01" nType="0">
          <Node pos="l" depth="2" NCoef="0" IVar="4" Cut="7.0088348388671875e+02" cType="0" res="-9.9000000000000000e+01" rms="0.0000000000000000e+00" purity="3.8915431499481201e-01" nType="0">
            <Node pos="l" depth="3" NCoef="0" IVar="-1" Cut="0.0000000000000000e+00" cType="1" res="-9.9000000000000000e+01" rms="0.0000000000000000e+00" purity="5.3881937265396118e-01" nType="1"/>
            <Node pos="r" depth="3" NCoef="0" IVar="-1" Cut="0.0000000000000000e+00" cType="1" res="-9.9000000000000000e+01" rms="0.0000000000000000e+00" purity="2.6010534167289734e-01" nType="-1"/>
          </Node>
          <Node pos="r" depth="2" NCoef="0" IVar="-1" Cut="3.1429328918457031e+01" cType="1" res="-9.9000000000000000e+01" rms="0.0000000000000000e+00" purity="6.4362324774265289e-02" nType="-1"/>
        </Node>
      </Node>
    </BinaryTree>
    <BinaryTree type="DecisionTree" boostWeight="4.8975465293354598e-01" itree="3">
      <Node pos="s" depth="0" NCoef="0" IVar="4" Cut="1.1210556640625000e+03" cType="0" res="-9.9000000000000000e+01" rms="0.0000000000000000e+00" purity="4.5936474204063416e-01" nType="0">
        <Node pos="l" depth="1" NCoef="0" IVar="-1" Cut="1.4126729736328125e+03" cType="0" res="-9.9000000000000000e+01" rms="0.0000000000000000e+00" purity="8.0133539438247681e-01" nType="1"/>
        <Node pos="r" depth="1" NCoef="0" IVar="11" Cut="1.1514956474304199e+01" cType="1" res="-9.9000000000000000e+01" rms="0.0000000000000000e+00" purity="3.7017232179641724e-01" nType="0">
          <Node pos="l" depth="2" NCoef="0" IVar="0" Cut="5.4876035156250000e+03" cType="0" res="-9.9000000000000000e+01" rms="0.0000000000000000e+00" purity="4.8372492194175720e-01" nType="0">
            <Node pos="l" depth="3" NCoef="0" IVar="-1" Cut="0.0000000000000000e+00" cType="1" res="-9.9000000000000000e+01" rms="0.0000000000000000e+00" purity="6.5640300512313843e-01" nType="1"/>
            <Node pos="r" depth="3" NCoef="0" IVar="-1" Cut="0.0000000000000000e+00" cType="1" res="-9.9000000000000000e+01" rms="0.0000000000000000e+00" purity="3.5542592406272888e-01" nType="-1"/>
          </Node>
          <Node pos="r" depth="2" NCoef="0" IVar="-1" Cut="2.9983358383178711e+01" cType="1" res="-9.9000000000000000e+01" rms="0.0000000000000000e+00" purity="2.1112288534641266e-01" nType="-1"/>
        </Node>
      </Node>
    </BinaryTree>
    <BinaryTree type="DecisionTree" boostWeight="3.2074959535300257e-01" itree="4">
      <Node pos="s" depth="0" NCoef="0" IVar="0" Cut="6.8223256835937500e+03" cType="0" res="-9.9000000000000000e+01" rms="0.0000000000000000e+00" purity="4.8264178633689880e-01" nType="0">
        <Node pos="l" depth="1" NCoef="0" IVar="4" Cut="8.7441668701171875e+02" cType="0" res="-9.9000000000000000e+01" rms="0.0000000000000000e+00" purity="6.3620382547378540e-01" nType="0">
          <Node pos="l" depth="2" NCoef="0" IVar="-1" Cut="1.1509305000305176e+01" cType="1" res="-9.9000000000000000e+01" rms="0.0000000000000000e+00" purity="7.4350470304489136e-01" nType="1"/>
          <Node pos="r" depth="2" NCoef="0" IVar="11" Cut="1.1642649650573730e+01" cType="1" res="-9.9000000000000000e+01" rms="0.0000000000000000e+00" purity="4.8559933900833130e-01" nType="0">
            <Node pos="l" depth="3" NCoef="0" IVar="-1" Cut="0.0000000000000000e+00" cType="1" res="-9.9000000000000000e+01" rms="0.0000000000000000e+00" purity="5.6918066740036011e-01" nType="1"/>
            <Node pos="r" depth="3" NCoef="0" IVar="-1" Cut="0.0000000000000000e+00" cType="1" res="-9.9000000000000000e+01" rms="0.0000000000000000e+00" purity="3.6910837888717651e-01" nType="-1"/>
          </Node>
        </Node>
        <Node pos="r" depth="1" NCoef="0" IVar="-1" Cut="2.2860818862915039e+01" cType="1" res="-9.9000000000000000e+01" rms="0.0000000000000000e+00" purity="3.6525064706802368e-01" nType="-1"/>
      </Node>
    </BinaryTree>
    <BinaryTree type="DecisionTree" boostWeight="3.1165599290651724e-01" itree="5">
      <Node pos="s" depth="0" NCoef="0" IVar="11" Cut="2.5719682693481445e+01" cType="1" res="-9.9000000000000000e+01" rms="0.0000000000000000e+00" purity="4.8838454484939575e-01" nType="0">
        <Node pos="l" depth="1" NCoef="0" IVar="4" Cut="9.4302618408203125e+02" cType="0" res="-9.9000000000000000e+01" rms="0.0000000000000000e+00" purity="5.4820555448532104e-01" nType="0">
          <Node pos="l" depth="2" NCoef="0" IVar="-1" Cut="1.4855433349609375e+03" cType="0" res="-9.9000000000000000e+01" rms="0.0000000000000000e+00" purity="7.1943098306655884e-01" nType="1"/>
          <Node pos="r" depth="2" NCoef="0" IVar="0" Cut="2.2007167968750000e+03" cType="0" res="-9.9000000000000000e+01" rms="0.0000000000000000e+00" purity="4.6883243322372437e-01" nType="0">
            <Node pos="l" depth="3" NCoef="0" IVar="-1" Cut="0.0000000000000000e+00" cType="1" res="-9.9000000000000000e+01" rms="0.0000000000000000e+00" purity="5.2374130487442017e-01" nType="1"/>
            <Node pos="r" depth="3" NCoef="0" IVar="-1" Cut="0.0000000000000000e+00" cType="1" res="-9.9000000000000000e+01" rms="0.0000000000000000e+00" purity="3.0086421966552734e-01" nType="-1"/>
          </Node>
        </Node>
        <Node pos="r" depth="1" NCoef="0" IVar="-1" Cut="6.8394697265625000e+03" cType="0" res="-9.9000000000000000e+01" rms="0.0000000000000000e+00" purity="1.4243160188198090e-01" nType="-1"/>
      </Node>
    </BinaryTree>
    <BinaryTree type="DecisionTree" boostWeight="2.8357758227368751e-01" itree="6">
      <Node pos="s" depth="0" NCoef="0" IVar="11" Cut="3.1465353012084961e+01" cType="1" res="-9.9000000000000000e+01" rms="0.0000000000000000e+00" purity="4.6899834275245667e-01" nType="0">
        <Node pos="l" depth="1" NCoef="0" IVar="4" Cut="1.1149425048828125e+03" cType="0" res="-9.9000000000000000e+01" rms="0.0000000000000000e+00" purity="5.0874698162078857e-01" nType="0">
          <Node pos="l" depth="2" NCoef="0" IVar="-1" Cut="1.4065192871093750e+03" cType="0" res="-9.9000000000000000e+01" rms="0.0000000000000000e+00" purity="7.0048713684082031e-01" nType="1"/>
          <Node pos="r" depth="2" NCoef="0" IVar="11" Cut="7.5579061508178711e+00" cType="1" res="-9.9000000000000000e+01" rms="0.0000000000000000e+00" purity="4.6041560173034668e-01" nType="0">
            <Node pos="l" depth="3" NCoef="0" IVar="-1" Cut="0.0000000000000000e+00" cType="1" res="-9.9000000000000000e+01" rms="0.0000000000000000e+00" purity="5.5016165971755981e-01" nType="1"/>
            <Node pos="r" depth="3" NCoef="0" IVar="-1" Cut="0.0000000000000000e+00" cType="1" res="-9.9000000000000000e+01" rms="0.0000000000000000e+00" purity="3.7315002083778381e-01" nType="-1"/>
          </Node>
        </Node>
        <Node pos="r" depth="1" NCoef="0" IVar="-1" Cut="4.5055942535400391e+01" cType="1" res="-9.9000000000000000e+01" rms="0.0000000000000000e+00" purity="1.4454369246959686e-01" nType="-1"/>
      </Node>
    </BinaryTree>
    <BinaryTree type="DecisionTree" boostWeight="2.2724477791240899e-01" itree="7">
      <Node pos="s" depth="0" NCoef="0" IVar="11" Cut="2.8576276779174805e+01" cType="1" res="-9.9000000000000000e+01" rms="0.0000000000000000e+00" purity="4.6612000465393066e-01" nType="0">
        <Node pos="l" depth="1" NCoef="0" IVar="4" Cut="1.0000179443359375e+03" cType="0" res="-9.9000000000000000e+01" rms="0.0000000000000000e+00" purity="5.0598055124282837e-01" nType="0">
          <Node pos="l" depth="2" NCoef="0" IVar="-1" Cut="1.5942203369140625e+03" cType="0" res="-9.9000000000000000e+01" rms="0.0000000000000000e+00" purity="6.6606897115707397e-01" nType="1"/>
          <Node pos="r" depth="2" NCoef="0" IVar="-1" Cut="4.9948968887329102e+00" cType="1" res="-9.9000000000000000e+01" rms="0.0000000000000000e+00" purity="4.4781222939491272e-01" nType="-1"/>
        </Node>
        <Node pos="r" depth="1" NCoef="0" IVar="-1" Cut="5.2252885742187500e+03" cType="0" res="-9.9000000000000000e+01" rms="0.0000000000000000e+00" purity="1.7600509524345398e-01" nType="-1"/>
      </Node>
    </BinaryTree>
    <BinaryTree type="DecisionTree" boostWeight="2.1902699455038127e-01" itree="8">
      <Node pos="s" depth="0" NCoef="0" IVar="11" Cut="3.1482234954833984e+01" cType="1" res="-9.9000000000000000e+01" rms="0.0000000000000000e+00" purity="4.8739123344421387e-01" nType="0">
        <Node pos="l" depth="1" NCoef="0" IVar="0" Cut="4.2604897460937500e+03" cType="0" res="-9.9000000000000000e+01" rms="0.0000000000000000e+00" purity="5.2287751436233521e-01" nType="0">
          <Node pos="l" depth="2" NCoef="0" IVar="-1" Cut="1.6357734375000000e+03" cType="0" res="-9.9000000000000000e+01" rms="0.0000000000000000e+00" purity="5.8672058582305908e-01" nType="1"/>
          <Node pos="r" depth="2" NCoef="0" IVar="-1" Cut="1.2277028808593750e+03" cType="0" res="-9.9000000000000000e+01" rms="0.0000000000000000e+00" purity="4.2226821184158325e-01" nType="-1"/>
        </Node>
        <Node pos="r" depth="1" NCoef="0" IVar="-1" Cut="4.3703323364257812e+01" cType="1" res="-9.9000000000000000e+01" rms="0.0000000000000000e+00" purity="1.7812395095825195e-01" nType="-1"/>
      </Node>
    </BinaryTree>
    <BinaryTree type="DecisionTree" boostWeight="5.8789085967500343e-01" itree="9">
      <Node pos="s" depth="0" NCoef="0" IVar="10" Cut="9.9964171648025513e-01" cType="0" res="-9.9000000000000000e+01" rms="0.0000000000000000e+00" purity="4.7360134124755859e-01" nType="0">
        <Node pos="l" depth="1" NCoef="0" IVar="10" Cut="9.9998295307159424e-01" cType="0" res="-9.9000000000000000e+01" rms="0.0000000000000000e+00" purity="5.0148820877075195e-01" nType="0">
          <Node pos="l" depth="2" NCoef="0" IVar="10" Cut="9.9999028444290161e-01" cType="0" res="-9.9000000000000000e+01" rms="0.0000000000000000e+00" purity="6.8922770023345947e-01" nType="0">
            <Node pos="l" depth="3" NCoef="0" IVar="-1" Cut="0.0000000000000000e+00" cType="1" res="-9.9000000000000000e+01" rms="0.0000000000000000e+00" purity="7.2124040126800537e-01" nType="1"/>
            <Node pos="r" depth="3" NCoef="0" IVar="-1" Cut="0.0000000000000000e+00" cType="1" res="-9.9000000000000000e+01" rms="0.0000000000000000e+00" purity="4.5503279566764832e-01" nType="-1"/>
          </Node>
          <Node pos="r" depth="2" NCoef="0" IVar="-1" Cut="9.9996668100357056e-01" cType="0" res="-9.9000000000000000e+01" rms="0.0000000000000000e+00" purity="1.5684168040752411e-01" nType="-1"/>
        </Node>
        <Node pos="r" depth="1" NCoef="0" IVar="-1" Cut="0.0000000000000000e+00" cType="1" res="-9.9000000000000000e+01" rms="0.0000000000000000e+00" purity="6.9137345999479294e-03" nType="-1"/>
      </Node>
    </BinaryTree>
    <BinaryTree type="DecisionTree" boostWeight="1.6612352732225669e-01" itree="10">
      <Node pos="s" depth="0" NCoef="0" IVar="11" Cut="4.0021415710449219e+01" cType="1" res="-9.9000000000000000e+01" rms="0.0000000000000000e+00" purity="4.7094130516052246e-01" nType="0">
        <Node pos="l" depth="1" NCoef="0" IVar="5" Cut="5.0558910369873047e+00" cType="1" res="-9.9000000000000000e+01" rms="0.0000000000000000e+00" purity="4.9271693825721741e-01" nType="0">
          <Node pos="l" depth="2" NCoef="0" IVar="11" Cut="5.7838425636291504e+00" cType="1" res="-9.9000000000000000e+01" rms="0.0000000000000000e+00" purity="5.1127475500106812e-01" nType="0">
            <Node pos="l" depth="3" NCoef="0" IVar="-1" Cut="0.0000000000000000e+00" cType="1" res="-9.9000000000000000e+01" rms="0.0000000000000000e+00" purity="5.9168571233749390e-01" nType="1"/>
            <Node pos="r" depth="3" NCoef="0" IVar="-1" Cut="0.0000000000000000e+00" cType="1" res="-9.9000000000000000e+01" rms="0.0000000000000000e+00" purity="4.7082301974296570e-01" nType="-1"/>
          </Node>
          <Node pos="r" depth="2" NCoef="0" IVar="-1" Cut="0.0000000000000000e+00" cType="1" res="-9.9000000000000000e+01" rms="0.0000000000000000e+00" purity="2.7037063241004944e-01" nType="-1"/>
        </Node>
        <Node pos="r" depth="1" NCoef="0" IVar="-1" Cut="0.0000000000000000e+00" cType="1" res="-9.9000000000000000e+01" rms="0.0000000000000000e+00" purity="1.2968908250331879e-01" nType="-1"/>
      </Node>
    </BinaryTree>
    <BinaryTree type="DecisionTree" boostWeight="1.3352690964081890e-01" itree="11">
      <Node pos="s" depth="0" NCoef="0" IVar="11" Cut="3.7163608551025391e+01" cType="1" res="-9.9000000000000000e+01" rms="0.0000000000000000e+00" purity="4.7442457079887390e-01" nType="0">
        <Node pos="l" depth="1" NCoef="0" IVar="4" Cut="1.3283258056640625e+03" cType="0" res="-9.9000000000000000e+01" rms="0.0000000000000000e+00" purity="4.9683770537376404e-01" nType="0">
          <Node pos="l" depth="2" NCoef="0" IVar="-1" Cut="3.0051963329315186e+00" cType="1" res="-9.9000000000000000e+01" rms="0.0000000000000000e+00" purity="6.7655819654464722e-01" nType="1"/>
          <Node pos="r" depth="2" NCoef="0" IVar="-1" Cut="4.9793305397033691e+00" cType="1" res="-9.9000000000000000e+01" rms="0.0000000000000000e+00" purity="4.7144222259521484e-01" nType="-1"/>
        </Node>
        <Node pos="r" depth="1" NCoef="0" IVar="-1" Cut="0.0000000000000000e+00" cType="1" res="-9.9000000000000000e+01" rms="0.0000000000000000e+00" purity="1.6187776625156403e-01" nType="-1"/>
      </Node>
    </BinaryTree>
    <BinaryTree type="DecisionTree" boostWeight="1.3595881553592451e-01" itree="12">
      <Node pos="s" depth="0" NCoef="0" IVar="11" Cut="3.7168354034423828e+01" cType="1" res="-9.9000000000000000e+01" rms="0.0000000000000000e+00" purity="4.9331536889076233e-01" nType="0">
        <Node pos="l" depth="1" NCoef="0" IVar="5" Cut="4.8770766258239746e+00" cType="1" res="-9.9000000000000000e+01" rms="0.0000000000000000e+00" purity="5.1527422666549683e-01" nType="0">
          <Node pos="l" depth="2" NCoef="0" IVar="-1" Cut="1.6357734375000000e+03" cType="0" res="-9.9000000000000000e+01" rms="0.0000000000000000e+00" purity="5.3608661890029907e-01" nType="1"/>
          <Node pos="r" depth="2" NCoef="0" IVar="-1" Cut="0.0000000000000000e+00" cType="1" res="-9.9000000000000000e+01" rms="0.0000000000000000e+00" purity="3.0713352560997009e-01" nType="-1"/>
        </Node>
        <Node pos="r" depth="1" NCoef="0" IVar="-1" Cut="0.0000000000000000e+00" cType="1" res="-9.9000000000000000e+01" rms="0.0000000000000000e+00" purity="2.1089406311511993e-01" nType="-1"/>
      </Node>
    </BinaryTree>
    <BinaryTree type="DecisionTree" boostWeight="1.4754219951724809e-01" itree="13">
      <Node pos="s" depth="0" NCoef="0" IVar="11" Cut="4.0052715301513672e+01" cType="1" res="-9.9000000000000000e+01" rms="0.0000000000000000e+00" purity="4.7980269789695740e-01" nType="0">
        <Node pos="l" depth="1" NCoef="0" IVar="4" Cut="8.5887384033203125e+02" cType="0" res="-9.9000000000000000e+01" rms="0.0000000000000000e+00" purity="4.9733603000640869e-01" nType="0">
          <Node pos="l" depth="2" NCoef="0" IVar="8" Cut="3.2665781974792480e+00" cType="1" res="-9.9000000000000000e+01" rms="0.0000000000000000e+00" purity="5.6708800792694092e-01" nType="0">
            <Node pos="l" depth="3" NCoef="0" IVar="-1" Cut="0.0000000000000000e+00" cType="1" res="-9.9000000000000000e+01" rms="0.0000000000000000e+00" purity="6.1727708578109741e-01" nType="1"/>
            <Node pos="r" depth="3" NCoef="0" IVar="-1" Cut="0.0000000000000000e+00" cType="1" res="-9.9000000000000000e+01" rms="0.0000000000000000e+00" purity="4.8773643374443054e-01" nType="-1"/>
          </Node>
          <Node pos="r" depth="2" NCoef="0" IVar="-1" Cut="5.9986529541015625e+02" cType="0" res="-9.9000000000000000e+01" rms="0.0000000000000000e+00" purity="4.5274662971496582e-01" nType="-1"/>
        </Node>
        <Node pos="r" depth="1" NCoef="0" IVar="-1" Cut="0.0000000000000000e+00" cType="1" res="-9.9000000000000000e+01" rms="0.0000000000000000e+00" purity="1.6843408346176147e-01" nType="-1"/>
      </Node>
    </BinaryTree>
    <BinaryTree type="DecisionTree" boostWeight="1.1998015593712735e-01" itree="14">
      <Node pos="s" depth="0" NCoef="0" IVar="11" Cut="3.7142368316650391e+01" cType="1" res="-9.9000000000000000e+01" rms="0.0000000000000000e+00" purity="5.0034332275390625e-01" nType="0">
        <Node pos="l" depth="1" NCoef="0" IVar="5" Cut="4.9593796730041504e+00" cType="1" res="-9.9000000000000000e+01" rms="0.0000000000000000e+00" purity="5.2156001329421997e-01" nType="0">
          <Node pos="l" depth="2" NCoef="0" IVar="-1" Cut="2.4662587642669678e+00" cType="1" res="-9.9000000000000000e+01" rms="0.0000000000000000e+00" purity="5.3484475612640381e-01" nType="1"/>
          <Node pos="r" depth="2" NCoef="0" IVar="-1" Cut="0.0000000000000000e+00" cType="1" res="-9.9000000000000000e+01" rms="0.0000000000000000e+00" purity="3.7453597784042358e-01" nType="-1"/>
        </Node>
        <Node pos="r" depth="1" NCoef="0" IVar="-1" Cut="0.0000000000000000e+00" cType="1" res="-9.9000000000000000e+01" rms="0.0000000000000000e+00" purity="1.7090308666229248e-01" nType="-1"/>
      </Node>
    </BinaryTree>
    <BinaryTree type="DecisionTree" boostWeight="1.4435444165670966e-01" itree="15">
      <Node pos="s" depth="0" NCoef="0" IVar="11" Cut="3.4281917572021484e+01" cType="1" res="-9.9000000000000000e+01" rms="0.0000000000000000e+00" purity="4.8043346405029297e-01" nType="0">
        <Node pos="l" depth="1" NCoef="0" IVar="4" Cut="1.6489422607421875e+03" cType="0" res="-9.9000000000000000e+01" rms="0.0000000000000000e+00" purity="5.0263226032257080e-01" nType="0">
          <Node pos="l" depth="2" NCoef="0" IVar="-1" Cut="0.0000000000000000e+00" cType="1" res="-9.9000000000000000e+01" rms="0.0000000000000000e+00" purity="6.9304841756820679e-01" nType="1"/>
          <Node pos="r" depth="2" NCoef="0" IVar="4" Cut="5.9655792236328125e+02" cType="0" res="-9.9000000000000000e+01" rms="0.0000000000000000e+00" purity="4.8960259556770325e-01" nType="0">
            <Node pos="l" depth="3" NCoef="0" IVar="-1" Cut="0.0000000000000000e+00" cType="1" res="-9.9000000000000000e+01" rms="0.0000000000000000e+00" purity="5.2174669504165649e-01" nType="1"/>
            <Node pos="r" depth="3" NCoef="0" IVar="-1" Cut="0.0000000000000000e+00" cType="1" res="-9.9000000000000000e+01" rms="0.0000000000000000e+00" purity="3.7992316484451294e-01" nType="-1"/>
          </Node>
        </Node>
        <Node pos="r" depth="1" NCoef="0" IVar="-1" Cut="0.0000000000000000e+00" cType="1" res="-9.9000000000000000e+01" rms="0.0000000000000000e+00" purity="1.9796454906463623e-01" nType="-1"/>
      </Node>
    </BinaryTree>
    <BinaryTree type="DecisionTree" boostWeight="1.0330887184967981e-01" itree="16">
      <Node pos="s" depth="0" NCoef="0" IVar="11" Cut="2.8617864608764648e+01" cType="1" res="-9.9000000000000000e+01" rms="0.0000000000000000e+00" purity="4.6924534440040588e-01" nType="0">
        <Node pos="l" depth="1" NCoef="0" IVar="4" Cut="1.6566336669921875e+03" cType="0" res="-9.9000000000000000e+01" rms="0.0000000000000000e+00" purity="4.9227303266525269e-01" nType="0">
          <Node pos="l" depth="2" NCoef="0" IVar="-1" Cut="0.0000000000000000e+00" cType="1" res="-9.9000000000000000e+01" rms="0.0000000000000000e+00" purity="6.8745756149291992e-01" nType="1"/>
          <Node pos="r" depth="2" NCoef="0" IVar="-1" Cut="4.9234519004821777e+00" cType="1" res="-9.9000000000000000e+01" rms="0.0000000000000000e+00" purity="4.7946706414222717e-01" nType="-1"/>
        </Node>
        <Node pos="r" depth="1" NCoef="0" IVar="-1" Cut="0.0000000000000000e+00" cType="1" res="-9.9000000000000000e+01" rms="0.0000000000000000e+00" purity="2.6767745614051819e-01" nType="-1"/>
      </Node>
    </BinaryTree>
    <BinaryTree type="DecisionTree" boostWeight="1.1725316990506016e-01" itree="17">
      <Node pos="s" depth="0" NCoef="0" IVar="11" Cut="3.7176315307617188e+01" cType="1" res="-9.9000000000000000e+01" rms="0.0000000000000000e+00" purity="4.9174648523330688e-01" nType="0">
        <Node pos="l" depth="1" NCoef="0" IVar="4" Cut="7.4676910400390625e+02" cType="0" res="-9.9000000000000000e+01" rms="0.0000000000000000e+00" purity="5.1029717922210693e-01" nType="0">
          <Node pos="l" depth="2" NCoef="0" IVar="-1" Cut="2.6361424922943115e+00" cType="1" res="-9.9000000000000000e+01" rms="0.0000000000000000e+00" purity="5.5156916379928589e-01" nType="1"/>
          <Node pos="r" depth="2" NCoef="0" IVar="-1" Cut="1.9514513015747070e+01" cType="1" res="-9.9000000000000000e+01" rms="0.0000000000000000e+00" purity="4.6615162491798401e-01" nType="-1"/>
        </Node>
        <Node pos="r" depth="1" NCoef="0" IVar="-1" Cut="0.0000000000000000e+00" cType="1" res="-9.9000000000000000e+01" rms="0.0000000000000000e+00" purity="2.0111408829689026e-01" nType="-1"/>
      </Node>
    </BinaryTree>
    <BinaryTree type="DecisionTree" boostWeight="1.0558271846807732e-01" itree="18">
      <Node pos="s" depth="0" NCoef="0" IVar="11" Cut="3.4289463043212891e+01" cType="1" res="-9.9000000000000000e+01" rms="0.0000000000000000e+00" purity="4.8068559169769287e-01" nType="0">
        <Node pos="l" depth="1" NCoef="0" IVar="5" Cut="2.7060229778289795e+00" cType="1" res="-9.9000000000000000e+01" rms="0.0000000000000000e+00" purity="4.9501824378967285e-01" nType="0">
          <Node pos="l" depth="2" NCoef="0" IVar="-1" Cut="0.0000000000000000e+00" cType="1" res="-9.9000000000000000e+01" rms="0.0000000000000000e+00" purity="6.1465877294540405e-01" nType="1"/>
          <Node pos="r" depth="2" NCoef="0" IVar="11" Cut="9.8039865493774414e+00" cType="1" res="-9.9000000000000000e+01" rms="0.0000000000000000e+00" purity="4.8187673091888428e-01" nType="0">
            <Node pos="l" depth="3" NCoef="0" IVar="-1" Cut="0.0000000000000000e+00" cType="1" res="-9.9000000000000000e+01" rms="0.0000000000000000e+00" purity="5.1210898160934448e-01" nType="1"/>
            <Node pos="r" depth="3" NCoef="0" IVar="-1" Cut="0.0000000000000000e+00" cType="1" res="-9.9000000000000000e+01" rms="0.0000000000000000e+00" purity="4.3478527665138245e-01" nType="-1"/>
          </Node>
        </Node>
        <Node pos="r" depth="1" NCoef="0" IVar="-1" Cut="0.0000000000000000e+00" cType="1" res="-9.9000000000000000e+01" rms="0.0000000000000000e+00" purity="3.0423870682716370e-01" nType="-1"/>
      </Node>
    </BinaryTree>
    <BinaryTree type="DecisionTree" boostWeight="7.5427208421815925e-02" itree="19">
      <Node pos="s" depth="0" NCoef="0" IVar="11" Cut="4.0025390625000000e+01" cType="1" res="-9.9000000000000000e+01" rms="0.0000000000000000e+00" purity="4.8851805925369263e-01" nType="0">
        <Node pos="l" depth="1" NCoef="0" IVar="5" Cut="2.6391334533691406e+00" cType="1" res="-9.9000000000000000e+01" rms="0.0000000000000000e+00" purity="5.0147128105163574e-01" nType="0">
          <Node pos="l" depth="2" NCoef="0" IVar="-1" Cut="0.0000000000000000e+00" cType="1" res="-9.9000000000000000e+01" rms="0.0000000000000000e+00" purity="6.0885626077651978e-01" nType="1"/>
          <Node pos="r" depth="2" NCoef="0" IVar="3" Cut="6.4197895507812500e+03" cType="1" res="-9.9000000000000000e+01" rms="0.0000000000000000e+00" purity="4.9126350879669189e-01" nType="0">
            <Node pos="l" depth="3" NCoef="0" IVar="-1" Cut="0.0000000000000000e+00" cType="1" res="-9.9000000000000000e+01" rms="0.0000000000000000e+00" purity="5.0536900758743286e-01" nType="1"/>
            <Node pos="r" depth="3" NCoef="0" IVar="-1" Cut="0.0000000000000000e+00" cType="1" res="-9.9000000000000000e+01" rms="0.0000000000000000e+00" purity="3.8622042536735535e-01" nType="-1"/>
          </Node>
        </Node>
        <Node pos="r" depth="1" NCoef="0" IVar="-1" Cut="0.0000000000000000e+00" cType="1" res="-9.9000000000000000e+01" rms="0.0000000000000000e+00" purity="2.4358010292053223e-01" nType="-1"/>
      </Node>
    </BinaryTree>
    <BinaryTree type="DecisionTree" boostWeight="1.1952369059876633e-01" itree="20">
      <Node pos="s" depth="0" NCoef="0" IVar="4" Cut="1.6640693359375000e+03" cType="0" res="-9.9000000000000000e+01" rms="0.0000000000000000e+00" purity="4.7225087881088257e-01" nType="0">
        <Node pos="l" depth="1" NCoef="0" IVar="-1" Cut="0.0000000000000000e+00" cType="1" res="-9.9000000000000000e+01" rms="0.0000000000000000e+00" purity="7.0463460683822632e-01" nType="1"/>
        <Node pos="r" depth="1" NCoef="0" IVar="11" Cut="3.4289463043212891e+01" cType="1" res="-9.9000000000000000e+01" rms="0.0000000000000000e+00" purity="4.5917230844497681e-01" nType="0">
          <Node pos="l" depth="2" NCoef="0" IVar="3" Cut="3.1782111816406250e+03" cType="1" res="-9.9000000000000000e+01" rms="0.0000000000000000e+00" purity="4.7446376085281372e-01" nType="0">
            <Node pos="l" depth="3" NCoef="0" IVar="-1" Cut="0.0000000000000000e+00" cType="1" res="-9.9000000000000000e+01" rms="0.0000000000000000e+00" purity="5.1169347763061523e-01" nType="1"/>
            <Node pos="r" depth="3" NCoef="0" IVar="-1" Cut="0.0000000000000000e+00" cType="1" res="-9.9000000000000000e+01" rms="0.0000000000000000e+00" purity="4.3992149829864502e-01" nType="-1"/>
          </Node>
          <Node pos="r" depth="2" NCoef="0" IVar="-1" Cut="0.0000000000000000e+00" cType="1" res="-9.9000000000000000e+01" rms="0.0000000000000000e+00" purity="2.5203767418861389e-01" nType="-1"/>
        </Node>
      </Node>
    </BinaryTree>
    <BinaryTree type="DecisionTree" boostWeight="1.0815338546054923e-01" itree="21">
      <Node pos="s" depth="0" NCoef="0" IVar="5" Cut="4.9193844795227051e+00" cType="1" res="-9.9000000000000000e+01" rms="0.0000000000000000e+00" purity="4.7116798162460327e-01" nType="0">
        <Node pos="l" depth="1" NCoef="0" IVar="8" Cut="3.4612681865692139e+00" cType="1" res="-9.9000000000000000e+01" rms="0.0000000000000000e+00" purity="4.8776778578758240e-01" nType="0">
          <Node pos="l" depth="2" NCoef="0" IVar="5" Cut="2.7688045501708984e+00" cType="1" res="-9.9000000000000000e+01" rms="0.0000000000000000e+00" purity="5.1847058534622192e-01" nType="0">
            <Node pos="l" depth="3" NCoef="0" IVar="-1" Cut="0.0000000000000000e+00" cType="1" res="-9.9000000000000000e+01" rms="0.0000000000000000e+00" purity="5.9930765628814697e-01" nType="1"/>
            <Node pos="r" depth="3" NCoef="0" IVar="-1" Cut="0.0000000000000000e+00" cType="1" res="-9.9000000000000000e+01" rms="0.0000000000000000e+00" purity="4.9958106875419617e-01" nType="-1"/>
          </Node>
          <Node pos="r" depth="2" NCoef="0" IVar="-1" Cut="3.1283323764801025e+00" cType="0" res="-9.9000000000000000e+01" rms="0.0000000000000000e+00" purity="4.0761715173721313e-01" nType="-1"/>
        </Node>
        <Node pos="r" depth="1" NCoef="0" IVar="-1" Cut="0.0000000000000000e+00" cType="1" res="-9.9000000000000000e+01" rms="0.0000000000000000e+00" purity="2.7929800748825073e-01" nType="-1"/>
      </Node>
    </BinaryTree>
    <BinaryTree type="DecisionTree" boostWeight="1.0220366779075525e-01" itree="22">
      <Node pos="s" depth="0" NCoef="0" IVar="11" Cut="3.7183414459228516e+01" cType="1" res="-9.9000000000000000e+01" rms="0.0000000000000000e+00" purity="4.8081958293914795e-01" nType="0">
        <Node pos="l" depth="1" NCoef="0" IVar="5" Cut="4.9307818412780762e+00" cType="1" res="-9.9000000000000000e+01" rms="0.0000000000000000e+00" purity="4.9471780657768250e-01" nType="0">
          <Node pos="l" depth="2" NCoef="0" IVar="6" Cut="3.5650353431701660e+00" cType="1" res="-9.9000000000000000e+01" rms="0.0000000000000000e+00" purity="5.0643843412399292e-01" nType="0">
            <Node pos="l" depth="3" NCoef="0" IVar="-1" Cut="0.0000000000000000e+00" cType="1" res="-9.9000000000000000e+01" rms="0.0000000000000000e+00" purity="5.2366304397583008e-01" nType="1"/>
            <Node pos="r" depth="3" NCoef="0" IVar="-1" Cut="0.0000000000000000e+00" cType="1" res="-9.9000000000000000e+01" rms="0.0000000000000000e+00" purity="4.4909623265266418e-01" nType="-1"/>
          </Node>
          <Node pos="r" depth="2" NCoef="0" IVar="-1" Cut="0.0000000000000000e+00" cType="1" res="-9.9000000000000000e+01" rms="0.0000000000000000e+00" purity="3.5761469602584839e-01" nType="-1"/>
        </Node>
        <Node pos="r" depth="1" NCoef="0" IVar="-1" Cut="0.0000000000000000e+00" cType="1" res="-9.9000000000000000e+01" rms="0.0000000000000000e+00" purity="2.3345214128494263e-01" nType="-1"/>
      </Node>
    </BinaryTree>
    <BinaryTree type="DecisionTree" boostWeight="1.2407971197018999e-01" itree="23">
      <Node pos="s" depth="0" NCoef="0" IVar="11" Cut="2.8621349334716797e+01" cType="1" res="-9.9000000000000000e+01" rms="0.0000000000000000e+00" purity="4.7616350650787354e-01" nType="0">
        <Node pos="l" depth="1" NCoef="0" IVar="8" Cut="3.0458941459655762e+00" cType="1" res="-9.9000000000000000e+01" rms="0.0000000000000000e+00" purity="4.9067351222038269e-01" nType="0">
          <Node pos="l" depth="2" NCoef="0" IVar="0" Cut="2.3771901855468750e+03" cType="0" res="-9.9000000000000000e+01" rms="0.0000000000000000e+00" purity="5.1921594142913818e-01" nType="0">
            <Node pos="l" depth="3" NCoef="0" IVar="-1" Cut="0.0000000000000000e+00" cType="1" res="-9.9000000000000000e+01" rms="0.0000000000000000e+00" purity="5.2970492839813232e-01" nType="1"/>
            <Node pos="r" depth="3" NCoef="0" IVar="-1" Cut="0.0000000000000000e+00" cType="1" res="-9.9000000000000000e+01" rms="0.0000000000000000e+00" purity="4.5938423275947571e-01" nType="-1"/>
          </Node>
          <Node pos="r" depth="2" NCoef="0" IVar="9" Cut="3.3441002368927002e+00" cType="0" res="-9.9000000000000000e+01" rms="0.0000000000000000e+00" purity="4.6590295433998108e-01" nType="0">
            <Node pos="l" depth="3" NCoef="0" IVar="-1" Cut="0.0000000000000000e+00" cType="1" res="-9.9000000000000000e+01" rms="0.0000000000000000e+00" purity="5.3076541423797607e-01" nType="1"/>
            <Node pos="r" depth="3" NCoef="0" IVar="-1" Cut="0.0000000000000000e+00" cType="1" res="-9.9000000000000000e+01" rms="0.0000000000000000e+00" purity="3.8368928432464600e-01" nType="-1"/>
          </Node>
        </Node>
        <Node pos="r" depth="1" NCoef="0" IVar="-1" Cut="0.0000000000000000e+00" cType="1" res="-9.9000000000000000e+01" rms="0.0000000000000000e+00" purity="3.3918485045433044e-01" nType="-1"/>
      </Node>
    </BinaryTree>
    <BinaryTree type="DecisionTree" boostWeight="8.6592087673937043e-02" itree="24">
      <Node pos="s" depth="0" NCoef="0" IVar="11" Cut="3.7172042846679688e+01" cType="1" res="-9.9000000000000000e+01" rms="0.0000000000000000e+00" purity="4.7410297393798828e-01" nType="0">
        <Node pos="l" depth="1" NCoef="0" IVar="5" Cut="4.9452018737792969e+00" cType="1" res="-9.9000000000000000e+01" rms="0.0000000000000000e+00" purity="4.8572283983230591e-01" nType="0">
          <Node pos="l" depth="2" NCoef="0" IVar="3" Cut="7.0467753906250000e+03" cType="1" res="-9.9000000000000000e+01" rms="0.0000000000000000e+00" purity="4.9806460738182068e-01" nType="0">
            <Node pos="l" depth="3" NCoef="0" IVar="-1" Cut="0.0000000000000000e+00" cType="1" res="-9.9000000000000000e+01" rms="0.0000000000000000e+00" purity="5.1136308908462524e-01" nType="1"/>
            <Node pos="r" depth="3" NCoef="0" IVar="-1" Cut="0.0000000000000000e+00" cType="1" res="-9.9000000000000000e+01" rms="0.0000000000000000e+00" purity="4.0643239021301270e-01" nType="-1"/>
          </Node>
          <Node pos="r" depth="2" NCoef="0" IVar="-1" Cut="0.0000000000000000e+00" cType="1" res="-9.9000000000000000e+01" rms="0.0000000000000000e+00" purity="3.4443181753158569e-01" nType="-1"/>
        </Node>
        <Node pos="r" depth="1" NCoef="0" IVar="-1" Cut="0.0000000000000000e+00" cType="1" res="-9.9000000000000000e+01" rms="0.0000000000000000e+00" purity="2.6492816209793091e-01" nType="-1"/>
      </Node>
    </BinaryTree>
    <BinaryTree type="DecisionTree" boostWeight="8.8544561677914316e-02" itree="25">
      <Node pos="s" depth="0" NCoef="0" IVar="11" Cut="2.8576276779174805e+01" cType="1" res="-9.9000000000000000e+01" rms="0.0000000000000000e+00" purity="4.7265014052391052e-01" nType="0">
        <Node pos="l" depth="1" NCoef="0" IVar="8" Cut="3.5926599502563477e+00" cType="1" res="-9.9000000000000000e+01" rms="0.0000000000000000e+00" purity="4.8577290773391724e-01" nType="0">
          <Node pos="l" depth="2" NCoef="0" IVar="2" Cut="8.7276093750000000e+03" cType="1" res="-9.9000000000000000e+01" rms="0.0000000000000000e+00" purity="5.0048780441284180e-01" nType="0">
            <Node pos="l" depth="3" NCoef="0" IVar="-1" Cut="0.0000000000000000e+00" cType="1" res="-9.9000000000000000e+01" rms="0.0000000000000000e+00" purity="5.1153331995010376e-01" nType="1"/>
            <Node pos="r" depth="3" NCoef="0" IVar="-1" Cut="0.0000000000000000e+00" cType="1" res="-9.9000000000000000e+01" rms="0.0000000000000000e+00" purity="4.0591621398925781e-01" nType="-1"/>
          </Node>
          <Node pos="r" depth="2" NCoef="0" IVar="9" Cut="3.4386563301086426e+00" cType="0" res="-9.9000000000000000e+01" rms="0.0000000000000000e+00" purity="4.3913054466247559e-01" nType="0">
            <Node pos="l" depth="3" NCoef="0" IVar="-1" Cut="0.0000000000000000e+00" cType="1" res="-9.9000000000000000e+01" rms="0.0000000000000000e+00" purity="5.0929778814315796e-01" nType="1"/>
            <Node pos="r" depth="3" NCoef="0" IVar="-1" Cut="0.0000000000000000e+00" cType="1" res="-9.9000000000000000e+01" rms="0.0000000000000000e+00" purity="3.1311264634132385e-01" nType="-1"/>
          </Node>
        </Node>
        <Node pos="r" depth="1" NCoef="0" IVar="-1" Cut="0.0000000000000000e+00" cType="1" res="-9.9000000000000000e+01" rms="0.0000000000000000e+00" purity="3.4722366929054260e-01" nType="-1"/>
      </Node>
    </BinaryTree>
    <BinaryTree type="DecisionTree" boostWeight="1.1188822367622055e-01" itree="26">
      <Node pos="s" depth="0" NCoef="0" IVar="5" Cut="5.2957191467285156e+00" cType="1" res="-9.9000000000000000e+01" rms="0.0000000000000000e+00" purity="4.6413984894752502e-01" nType="0">
        <Node pos="l" depth="1" NCoef="0" IVar="5" Cut="2.7151377201080322e+00" cType="1" res="-9.9000000000000000e+01" rms="0.0000000000000000e+00" purity="4.7487190365791321e-01" nType="0">
          <Node pos="l" depth="2" NCoef="0" IVar="-1" Cut="0.0000000000000000e+00" cType="1" res="-9.9000000000000000e+01" rms="0.0000000000000000e+00" purity="5.9025567770004272e-01" nType="1"/>
          <Node pos="r" depth="2" NCoef="0" IVar="-1" Cut="2.8569988250732422e+01" cType="1" res="-9.9000000000000000e+01" rms="0.0000000000000000e+00" purity="4.5975682139396667e-01" nType="-1"/>
        </Node>
        <Node pos="r" depth="1" NCoef="0" IVar="-1" Cut="0.0000000000000000e+00" cType="1" res="-9.9000000000000000e+01" rms="0.0000000000000000e+00" purity="2.6241570711135864e-01" nType="-1"/>
      </Node>
    </BinaryTree>
    <BinaryTree type="DecisionTree" boostWeight="1.1011553643250362e-01" itree="27">
      <Node pos="s" depth="0" NCoef="0" IVar="5" Cut="4.9976558685302734e+00" cType="1" res="-9.9000000000000000e+01" rms="0.0000000000000000e+00" purity="4.8805308341979980e-01" nType="0">
        <Node pos="l" depth="1" NCoef="0" IVar="11" Cut="2.2915969848632812e+01" cType="1" res="-9.9000000000000000e+01" rms="0.0000000000000000e+00" purity="4.9984553456306458e-01" nType="0">
          <Node pos="l" depth="2" NCoef="0" IVar="9" Cut="2.6875100135803223e+00" cType="0" res="-9.9000000000000000e+01" rms="0.0000000000000000e+00" purity="5.1117807626724243e-01" nType="0">
            <Node pos="l" depth="3" NCoef="0" IVar="-1" Cut="0.0000000000000000e+00" cType="1" res="-9.9000000000000000e+01" rms="0.0000000000000000e+00" purity="5.2880734205245972e-01" nType="1"/>
            <Node pos="r" depth="3" NCoef="0" IVar="-1" Cut="0.0000000000000000e+00" cType="1" res="-9.9000000000000000e+01" rms="0.0000000000000000e+00" purity="4.5400962233543396e-01" nType="-1"/>
          </Node>
          <Node pos="r" depth="2" NCoef="0" IVar="0" Cut="7.1620336914062500e+03" cType="0" res="-9.9000000000000000e+01" rms="0.0000000000000000e+00" purity="4.2667761445045471e-01" nType="0">
            <Node pos="l" depth="3" NCoef="0" IVar="-1" Cut="0.0000000000000000e+00" cType="1" res="-9.9000000000000000e+01" rms="0.0000000000000000e+00" purity="5.6734728813171387e-01" nType="1"/>
            <Node pos="r" depth="3" NCoef="0" IVar="-1" Cut="0.0000000000000000e+00" cType="1" res="-9.9000000000000000e+01" rms="0.0000000000000000e+00" purity="3.1054434180259705e-01" nType="-1"/>
          </Node>
        </Node>
        <Node pos="r" depth="1" NCoef="0" IVar="-1" Cut="0.0000000000000000e+00" cType="1" res="-9.9000000000000000e+01" rms="0.0000000000000000e+00" purity="3.3970600366592407e-01" nType="-1"/>
      </Node>
    </BinaryTree>
    <BinaryTree type="DecisionTree" boostWeight="8.0980370979831087e-02" itree="28">
      <Node pos="s" depth="0" NCoef="0" IVar="4" Cut="1.5426501464843750e+03" cType="0" res="-9.9000000000000000e+01" rms="0.0000000000000000e+00" purity="4.7409728169441223e-01" nType="0">
        <Node pos="l" depth="1" NCoef="0" IVar="-1" Cut="0.0000000000000000e+00" cType="1" res="-9.9000000000000000e+01" rms="0.0000000000000000e+00" purity="5.9304648637771606e-01" nType="1"/>
        <Node pos="r" depth="1" NCoef="0" IVar="-1" Cut="4.9966583251953125e+00" cType="1" res="-9.9000000000000000e+01" rms="0.0000000000000000e+00" purity="4.6404644846916199e-01" nType="-1"/>
      </Node>
    </BinaryTree>
    <BinaryTree type="DecisionTree" boostWeight="7.1121529663266764e-02" itree="29">
      <Node pos="s" depth="0" NCoef="0" IVar="11" Cut="2.9312655925750732e+00" cType="1" res="-9.9000000000000000e+01" rms="0.0000000000000000e+00" purity="4.8342534899711609e-01" nType="0">
        <Node pos="l" depth="1" NCoef="0" IVar="-1" Cut="0.0000000000000000e+00" cType="1" res="-9.9000000000000000e+01" rms="0.0000000000000000e+00" purity="5.8496528863906860e-01" nType="1"/>
        <Node pos="r" depth="1" NCoef="0" IVar="-1" Cut="4.9863352775573730e+00" cType="1" res="-9.9000000000000000e+01" rms="0.0000000000000000e+00" purity="4.7069871425628662e-01" nType="-1"/>
      </Node>
    </BinaryTree>
    <BinaryTree type="DecisionTree" boostWeight="7.8624228839852456e-02" itree="30">
      <Node pos="s" depth="0" NCoef="0" IVar="5" Cut="4.9411916732788086e+00" cType="1" res="-9.9000000000000000e+01" rms="0.0000000000000000e+00" purity="4.7781094908714294e-01" nType="0">
        <Node pos="l" depth="1" NCoef="0" IVar="5" Cut="2.9885392189025879e+00" cType="1" res="-9.9000000000000000e+01" rms="0.0000000000000000e+00" purity="4.8731467127799988e-01" nType="0">
          <Node pos="l" depth="2" NCoef="0" IVar="-1" Cut="1.4377283096313477e+01" cType="0" res="-9.9000000000000000e+01" rms="0.0000000000000000e+00" purity="5.3652751445770264e-01" nType="1"/>
          <Node pos="r" depth="2" NCoef="0" IVar="-1" Cut="2.5791011810302734e+01" cType="1" res="-9.9000000000000000e+01" rms="0.0000000000000000e+00" purity="4.7065570950508118e-01" nType="-1"/>
        </Node>
        <Node pos="r" depth="1" NCoef="0" IVar="-1" Cut="0.0000000000000000e+00" cType="1" res="-9.9000000000000000e+01" rms="0.0000000000000000e+00" purity="3.6480933427810669e-01" nType="-1"/>
      </Node>
    </BinaryTree>
    <BinaryTree type="DecisionTree" boostWeight="6.5526245135345620e-02" itree="31">
      <Node pos="s" depth="0" NCoef="0" IVar="11" Cut="3.1468582153320312e+01" cType="1" res="-9.9000000000000000e+01" rms="0.0000000000000000e+00" purity="4.8339104652404785e-01" nType="0">
        <Node pos="l" depth="1" NCoef="0" IVar="8" Cut="4.0630836486816406e+00" cType="1" res="-9.9000000000000000e+01" rms="0.0000000000000000e+00" purity="4.9640724062919617e-01" nType="0">
          <Node pos="l" depth="2" NCoef="0" IVar="5" Cut="4.8770766258239746e+00" cType="1" res="-9.9000000000000000e+01" rms="0.0000000000000000e+00" purity="5.0410217046737671e-01" nType="0">
            <Node pos="l" depth="3" NCoef="0" IVar="-1" Cut="0.0000000000000000e+00" cType="1" res="-9.9000000000000000e+01" rms="0.0000000000000000e+00" purity="5.1003760099411011e-01" nType="1"/>
            <Node pos="r" depth="3" NCoef="0" IVar="-1" Cut="0.0000000000000000e+00" cType="1" res="-9.9000000000000000e+01" rms="0.0000000000000000e+00" purity="4.3327394127845764e-01" nType="-1"/>
          </Node>
          <Node pos="r" depth="2" NCoef="0" IVar="-1" Cut="0.0000000000000000e+00" cType="1" res="-9.9000000000000000e+01" rms="0.0000000000000000e+00" purity="3.9195659756660461e-01" nType="-1"/>
        </Node>
        <Node pos="r" depth="1" NCoef="0" IVar="-1" Cut="0.0000000000000000e+00" cType="1" res="-9.9000000000000000e+01" rms="0.0000000000000000e+00" purity="3.0023422837257385e-01" nType="-1"/>
      </Node>
    </BinaryTree>
    <BinaryTree type="DecisionTree" boostWeight="6.2389336727157026e-02" itree="32">
      <Node pos="s" depth="0" NCoef="0" IVar="5" Cut="4.9834995269775391e+00" cType="1" res="-9.9000000000000000e+01" rms="0.0000000000000000e+00" purity="4.8643109202384949e-01" nType="0">
        <Node pos="l" depth="1" NCoef="0" IVar="6" Cut="2.4379897117614746e+00" cType="1" res="-9.9000000000000000e+01" rms="0.0000000000000000e+00" purity="4.9635678529739380e-01" nType="0">
          <Node pos="l" depth="2" NCoef="0" IVar="-1" Cut="0.0000000000000000e+00" cType="1" res="-9.9000000000000000e+01" rms="0.0000000000000000e+00" purity="5.8259975910186768e-01" nType="1"/>
          <Node pos="r" depth="2" NCoef="0" IVar="-1" Cut="3.1487152099609375e+01" cType="1" res="-9.9000000000000000e+01" rms="0.0000000000000000e+00" purity="4.8520529270172119e-01" nType="-1"/>
        </Node>
        <Node pos="r" depth="1" NCoef="0" IVar="-1" Cut="0.0000000000000000e+00" cType="1" res="-9.9000000000000000e+01" rms="0.0000000000000000e+00" purity="3.5516333580017090e-01" nType="-1"/>
      </Node>
    </BinaryTree>
    <BinaryTree type="DecisionTree" boostWeight="6.4800245786385172e-02" itree="33">
      <Node pos="s" depth="0" NCoef="0" IVar="5" Cut="4.9479818344116211e+00" cType="1" res="-9.9000000000000000e+01" rms="0.0000000000000000e+00" purity="4.9186268448829651e-01" nType="0">
        <Node pos="l" depth="1" NCoef="0" IVar="3" Cut="6.8519750976562500e+03" cType="1" res="-9.9000000000000000e+01" rms="0.0000000000000000e+00" purity="5.0153601169586182e-01" nType="0">
          <Node pos="l" depth="2" NCoef="0" IVar="-1" Cut="2.0616394042968750e+03" cType="1" res="-9.9000000000000000e+01" rms="0.0000000000000000e+00" purity="5.1495850086212158e-01" nType="1"/>
          <Node pos="r" depth="2" NCoef="0" IVar="-1" Cut="0.0000000000000000e+00" cType="1" res="-9.9000000000000000e+01" rms="0.0000000000000000e+00" purity="4.1145786643028259e-01" nType="-1"/>
        </Node>
        <Node pos="r" depth="1" NCoef="0" IVar="-1" Cut="0.0000000000000000e+00" cType="1" res="-9.9000000000000000e+01" rms="0.0000000000000000e+00" purity="3.6312445998191833e-01" nType="-1"/>
      </Node>
    </BinaryTree>
    <BinaryTree type="DecisionTree" boostWeight="1.1463871151565003e-01" itree="34">
      <Node pos="s" depth="0" NCoef="0" IVar="2" Cut="3.1720834960937500e+03" cType="0" res="-9.9000000000000000e+01" rms="0.0000000000000000e+00" purity="4.8962888121604919e-01" nType="0">
        <Node pos="l" depth="1" NCoef="0" IVar="4" Cut="1.6415649414062500e+03" cType="0" res="-9.9000000000000000e+01" rms="0.0000000000000000e+00" purity="5.2127391099929810e-01" nType="0">
          <Node pos="l" depth="2" NCoef="0" IVar="-1" Cut="0.0000000000000000e+00" cType="1" res="-9.9000000000000000e+01" rms="0.0000000000000000e+00" purity="6.3785332441329956e-01" nType="1"/>
          <Node pos="r" depth="2" NCoef="0" IVar="8" Cut="3.1860764026641846e+00" cType="1" res="-9.9000000000000000e+01" rms="0.0000000000000000e+00" purity="5.0631278753280640e-01" nType="0">
            <Node pos="l" depth="3" NCoef="0" IVar="-1" Cut="0.0000000000000000e+00" cType="1" res="-9.9000000000000000e+01" rms="0.0000000000000000e+00" purity="5.3673720359802246e-01" nType="1"/>
            <Node pos="r" depth="3" NCoef="0" IVar="-1" Cut="0.0000000000000000e+00" cType="1" res="-9.9000000000000000e+01" rms="0.0000000000000000e+00" purity="4.6445766091346741e-01" nType="-1"/>
          </Node>
        </Node>
        <Node pos="r" depth="1" NCoef="0" IVar="11" Cut="1.7200643539428711e+01" cType="1" res="-9.9000000000000000e+01" rms="0.0000000000000000e+00" purity="4.4943252205848694e-01" nType="0">
          <Node pos="l" depth="2" NCoef="0" IVar="3" Cut="2.4617468261718750e+03" cType="1" res="-9.9000000000000000e+01" rms="0.0000000000000000e+00" purity="4.8324492573738098e-01" nType="0">
            <Node pos="l" depth="3" NCoef="0" IVar="-1" Cut="0.0000000000000000e+00" cType="1" res="-9.9000000000000000e+01" rms="0.0000000000000000e+00" purity="5.2234578132629395e-01" nType="1"/>
            <Node pos="r" depth="3" NCoef="0" IVar="-1" Cut="0.0000000000000000e+00" cType="1" res="-9.9000000000000000e+01" rms="0.0000000000000000e+00" purity="4.4294163584709167e-01" nType="-1"/>
          </Node>
          <Node pos="r" depth="2" NCoef="0" IVar="-1" Cut="0.0000000000000000e+00" cType="1" res="-9.9000000000000000e+01" rms="0.0000000000000000e+00" purity="3.0883190035820007e-01" nType="-1"/>
        </Node>
      </Node>
    </BinaryTree>
    <BinaryTree type="DecisionTree" boostWeight="7.4000338353614512e-02" itree="35">
      <Node pos="s" depth="0" NCoef="0" IVar="11" Cut="3.7146057128906250e+01" cType="1" res="-9.9000000000000000e+01" rms="0.0000000000000000e+00" purity="4.9339351058006287e-01" nType="0">
        <Node pos="l" depth="1" NCoef="0" IVar="9" Cut="3.3233070373535156e+00" cType="0" res="-9.9000000000000000e+01" rms="0.0000000000000000e+00" purity="5.0065654516220093e-01" nType="0">
          <Node pos="l" depth="2" NCoef="0" IVar="8" Cut="3.0231120586395264e+00" cType="0" res="-9.9000000000000000e+01" rms="0.0000000000000000e+00" purity="5.2545326948165894e-01" nType="0">
            <Node pos="l" depth="3" NCoef="0" IVar="-1" Cut="0.0000000000000000e+00" cType="1" res="-9.9000000000000000e+01" rms="0.0000000000000000e+00" purity="5.4364198446273804e-01" nType="1"/>
            <Node pos="r" depth="3" NCoef="0" IVar="-1" Cut="0.0000000000000000e+00" cType="1" res="-9.9000000000000000e+01" rms="0.0000000000000000e+00" purity="4.4904243946075439e-01" nType="-1"/>
          </Node>
          <Node pos="r" depth="2" NCoef="0" IVar="8" Cut="3.4651153087615967e+00" cType="1" res="-9.9000000000000000e+01" rms="0.0000000000000000e+00" purity="4.8467898368835449e-01" nType="0">
            <Node pos="l" depth="3" NCoef="0" IVar="-1" Cut="0.0000000000000000e+00" cType="1" res="-9.9000000000000000e+01" rms="0.0000000000000000e+00" purity="5.0416088104248047e-01" nType="1"/>
            <Node pos="r" depth="3" NCoef="0" IVar="-1" Cut="0.0000000000000000e+00" cType="1" res="-9.9000000000000000e+01" rms="0.0000000000000000e+00" purity="3.6846080422401428e-01" nType="-1"/>
          </Node>
        </Node>
        <Node pos="r" depth="1" NCoef="0" IVar="-1" Cut="0.0000000000000000e+00" cType="1" res="-9.9000000000000000e+01" rms="0.0000000000000000e+00" purity="3.5863038897514343e-01" nType="-1"/>
      </Node>
    </BinaryTree>
    <BinaryTree type="DecisionTree" boostWeight="1.0448311877818341e-01" itree="36">
      <Node pos="s" depth="0" NCoef="0" IVar="0" Cut="3.4217663574218750e+03" cType="0" res="-9.9000000000000000e+01" rms="0.0000000000000000e+00" purity="4.8210895061492920e-01" nType="0">
        <Node pos="l" depth="1" NCoef="0" IVar="6" Cut="3.8862693309783936e+00" cType="1" res="-9.9000000000000000e+01" rms="0.0000000000000000e+00" purity="5.0145423412322998e-01" nType="0">
          <Node pos="l" depth="2" NCoef="0" IVar="8" Cut="3.2450797557830811e+00" cType="1" res="-9.9000000000000000e+01" rms="0.0000000000000000e+00" purity="5.1210641860961914e-01" nType="0">
            <Node pos="l" depth="3" NCoef="0" IVar="-1" Cut="0.0000000000000000e+00" cType="1" res="-9.9000000000000000e+01" rms="0.0000000000000000e+00" purity="5.2980625629425049e-01" nType="1"/>
            <Node pos="r" depth="3" NCoef="0" IVar="-1" Cut="0.0000000000000000e+00" cType="1" res="-9.9000000000000000e+01" rms="0.0000000000000000e+00" purity="4.8023545742034912e-01" nType="-1"/>
          </Node>
          <Node pos="r" depth="2" NCoef="0" IVar="-1" Cut="0.0000000000000000e+00" cType="1" res="-9.9000000000000000e+01" rms="0.0000000000000000e+00" purity="4.1032034158706665e-01" nType="-1"/>
        </Node>
        <Node pos="r" depth="1" NCoef="0" IVar="0" Cut="1.3123872070312500e+03" cType="0" res="-9.9000000000000000e+01" rms="0.0000000000000000e+00" purity="4.3293255567550659e-01" nType="0">
          <Node pos="l" depth="2" NCoef="0" IVar="3" Cut="2.2860432128906250e+03" cType="1" res="-9.9000000000000000e+01" rms="0.0000000000000000e+00" purity="4.8108556866645813e-01" nType="0">
            <Node pos="l" depth="3" NCoef="0" IVar="-1" Cut="0.0000000000000000e+00" cType="1" res="-9.9000000000000000e+01" rms="0.0000000000000000e+00" purity="5.4557961225509644e-01" nType="1"/>
            <Node pos="r" depth="3" NCoef="0" IVar="-1" Cut="0.0000000000000000e+00" cType="1" res="-9.9000000000000000e+01" rms="0.0000000000000000e+00" purity="4.1001182794570923e-01" nType="-1"/>
          </Node>
          <Node pos="r" depth="2" NCoef="0" IVar="-1" Cut="0.0000000000000000e+00" cType="1" res="-9.9000000000000000e+01" rms="0.0000000000000000e+00" purity="3.1699126958847046e-01" nType="-1"/>
        </Node>
      </Node>
    </BinaryTree>
    <BinaryTree type="DecisionTree" boostWeight="1.0215611117232114e-01" itree="37">
      <Node pos="s" depth="0" NCoef="0" IVar="2" Cut="5.0038476562500000e+03" cType="0" res="-9.9000000000000000e+01" rms="0.0000000000000000e+00" purity="4.7757801413536072e-01" nType="0">
        <Node pos="l" depth="1" NCoef="0" IVar="3" Cut="6.9016616210937500e+03" cType="1" res="-9.9000000000000000e+01" rms="0.0000000000000000e+00" purity="5.2277266979217529e-01" nType="0">
          <Node pos="l" depth="2" NCoef="0" IVar="-1" Cut="3.8327678222656250e+03" cType="0" res="-9.9000000000000000e+01" rms="0.0000000000000000e+00" purity="5.4823946952819824e-01" nType="1"/>
          <Node pos="r" depth="2" NCoef="0" IVar="-1" Cut="0.0000000000000000e+00" cType="1" res="-9.9000000000000000e+01" rms="0.0000000000000000e+00" purity="4.5720282196998596e-01" nType="-1"/>
        </Node>
        <Node pos="r" depth="1" NCoef="0" IVar="11" Cut="1.7143911361694336e+01" cType="1" res="-9.9000000000000000e+01" rms="0.0000000000000000e+00" purity="4.5981955528259277e-01" nType="0">
          <Node pos="l" depth="2" NCoef="0" IVar="9" Cut="2.8464593887329102e+00" cType="0" res="-9.9000000000000000e+01" rms="0.0000000000000000e+00" purity="4.8499161005020142e-01" nType="0">
            <Node pos="l" depth="3" NCoef="0" IVar="-1" Cut="0.0000000000000000e+00" cType="1" res="-9.9000000000000000e+01" rms="0.0000000000000000e+00" purity="5.1094979047775269e-01" nType="1"/>
            <Node pos="r" depth="3" NCoef="0" IVar="-1" Cut="0.0000000000000000e+00" cType="1" res="-9.9000000000000000e+01" rms="0.0000000000000000e+00" purity="4.2190027236938477e-01" nType="-1"/>
          </Node>
          <Node pos="r" depth="2" NCoef="0" IVar="-1" Cut="6.3906451416015625e+02" cType="0" res="-9.9000000000000000e+01" rms="0.0000000000000000e+00" purity="3.6104562878608704e-01" nType="-1"/>
        </Node>
      </Node>
    </BinaryTree>
    <BinaryTree type="DecisionTree" boostWeight="7.7590489772007942e-02" itree="38">
      <Node pos="s" depth="0" NCoef="0" IVar="4" Cut="1.3361988525390625e+03" cType="0" res="-9.9000000000000000e+01" rms="0.0000000000000000e+00" purity="4.7391641139984131e-01" nType="0">
        <Node pos="l" depth="1" NCoef="0" IVar="9" Cut="2.9082703590393066e+00" cType="0" res="-9.9000000000000000e+01" rms="0.0000000000000000e+00" purity="5.5300194025039673e-01" nType="0">
          <Node pos="l" depth="2" NCoef="0" IVar="-1" Cut="0.0000000000000000e+00" cType="1" res="-9.9000000000000000e+01" rms="0.0000000000000000e+00" purity="6.2400233745574951e-01" nType="1"/>
          <Node pos="r" depth="2" NCoef="0" IVar="-1" Cut="0.0000000000000000e+00" cType="1" res="-9.9000000000000000e+01" rms="0.0000000000000000e+00" purity="4.9438193440437317e-01" nType="-1"/>
        </Node>
        <Node pos="r" depth="1" NCoef="0" IVar="-1" Cut="5.0129299163818359e+00" cType="1" res="-9.9000000000000000e+01" rms="0.0000000000000000e+00" purity="4.6387705206871033e-01" nType="-1"/>
      </Node>
    </BinaryTree>
    <BinaryTree type="DecisionTree" boostWeight="5.7165806708221051e-02" itree="39">
      <Node pos="s" depth="0" NCoef="0" IVar="8" Cut="3.9282276630401611e+00" cType="1" res="-9.9000000000000000e+01" rms="0.0000000000000000e+00" purity="4.8517054319381714e-01" nType="0">
        <Node pos="l" depth="1" NCoef="0" IVar="5" Cut="4.9307818412780762e+00" cType="1" res="-9.9000000000000000e+01" rms="0.0000000000000000e+00" purity="4.9419015645980835e-01" nType="0">
          <Node pos="l" depth="2" NCoef="0" IVar="3" Cut="6.8782924804687500e+03" cType="1" res="-9.9000000000000000e+01" rms="0.0000000000000000e+00" purity="5.0105106830596924e-01" nType="0">
            <Node pos="l" depth="3" NCoef="0" IVar="-1" Cut="0.0000000000000000e+00" cType="1" res="-9.9000000000000000e+01" rms="0.0000000000000000e+00" purity="5.0931948423385620e-01" nType="1"/>
            <Node pos="r" depth="3" NCoef="0" IVar="-1" Cut="0.0000000000000000e+00" cType="1" res="-9.9000000000000000e+01" rms="0.0000000000000000e+00" purity="4.4939258694648743e-01" nType="-1"/>
          </Node>
          <Node pos="r" depth="2" NCoef="0" IVar="-1" Cut="0.0000000000000000e+00" cType="1" res="-9.9000000000000000e+01" rms="0.0000000000000000e+00" purity="3.8956663012504578e-01" nType="-1"/>
        </Node>
        <Node pos="r" depth="1" NCoef="0" IVar="-1" Cut="0.0000000000000000e+00" cType="1" res="-9.9000000000000000e+01" rms="0.0000000000000000e+00" purity="3.9389878511428833e-01" nType="-1"/>
      </Node>
    </BinaryTree>
    <BinaryTree type="DecisionTree" boostWeight="1.2003016785461776e-01" itree="40">
      <Node pos="s" depth="0" NCoef="0" IVar="11" Cut="8.6473484039306641e+00" cType="1" res="-9.9000000000000000e+01" rms="0.0000000000000000e+00" purity="4.8922082781791687e-01" nType="0">
        <Node pos="l" depth="1" NCoef="0" IVar="3" Cut="4.1126137695312500e+03" cType="1" res="-9.9000000000000000e+01" rms="0.0000000000000000e+00" purity="5.2147161960601807e-01" nType="0">
          <Node pos="l" depth="2" NCoef="0" IVar="-1" Cut="3.6369580078125000e+03" cType="0" res="-9.9000000000000000e+01" rms="0.0000000000000000e+00" purity="5.4593741893768311e-01" nType="1"/>
          <Node pos="r" depth="2" NCoef="0" IVar="8" Cut="2.7772712707519531e+00" cType="1" res="-9.9000000000000000e+01" rms="0.0000000000000000e+00" purity="4.8141661286354065e-01" nType="0">
            <Node pos="l" depth="3" NCoef="0" IVar="-1" Cut="0.0000000000000000e+00" cType="1" res="-9.9000000000000000e+01" rms="0.0000000000000000e+00" purity="5.6285399198532104e-01" nType="1"/>
            <Node pos="r" depth="3" NCoef="0" IVar="-1" Cut="0.0000000000000000e+00" cType="1" res="-9.9000000000000000e+01" rms="0.0000000000000000e+00" purity="4.4421964883804321e-01" nType="-1"/>
          </Node>
        </Node>
        <Node pos="r" depth="1" NCoef="0" IVar="2" Cut="5.4553886718750000e+03" cType="0" res="-9.9000000000000000e+01" rms="0.0000000000000000e+00" purity="4.5534732937812805e-01" nType="0">
          <Node pos="l" depth="2" NCoef="0" IVar="-1" Cut="0.0000000000000000e+00" cType="1" res="-9.9000000000000000e+01" rms="0.0000000000000000e+00" purity="5.5120778083801270e-01" nType="1"/>
          <Node pos="r" depth="2" NCoef="0" IVar="-1" Cut="2.3318799972534180e+01" cType="1" res="-9.9000000000000000e+01" rms="0.0000000000000000e+00" purity="4.2478701472282410e-01" nType="-1"/>
        </Node>
      </Node>
    </BinaryTree>
    <BinaryTree type="DecisionTree" boostWeight="8.5475463069770594e-02" itree="41">
      <Node pos="s" depth="0" NCoef="0" IVar="11" Cut="3.1462230682373047e+01" cType="1" res="-9.9000000000000000e+01" rms="0.0000000000000000e+00" purity="4.6931901574134827e-01" nType="0">
        <Node pos="l" depth="1" NCoef="0" IVar="8" Cut="3.0014240741729736e+00" cType="0" res="-9.9000000000000000e+01" rms="0.0000000000000000e+00" purity="4.7635251283645630e-01" nType="0">
          <Node pos="l" depth="2" NCoef="0" IVar="9" Cut="2.9226717948913574e+00" cType="0" res="-9.9000000000000000e+01" rms="0.0000000000000000e+00" purity="4.9263781309127808e-01" nType="0">
            <Node pos="l" depth="3" NCoef="0" IVar="-1" Cut="0.0000000000000000e+00" cType="1" res="-9.9000000000000000e+01" rms="0.0000000000000000e+00" purity="5.1420527696609497e-01" nType="1"/>
            <Node pos="r" depth="3" NCoef="0" IVar="-1" Cut="0.0000000000000000e+00" cType="1" res="-9.9000000000000000e+01" rms="0.0000000000000000e+00" purity="4.0100988745689392e-01" nType="-1"/>
          </Node>
          <Node pos="r" depth="2" NCoef="0" IVar="-1" Cut="2.7972939014434814e+00" cType="1" res="-9.9000000000000000e+01" rms="0.0000000000000000e+00" purity="4.5566442608833313e-01" nType="-1"/>
        </Node>
        <Node pos="r" depth="1" NCoef="0" IVar="-1" Cut="0.0000000000000000e+00" cType="1" res="-9.9000000000000000e+01" rms="0.0000000000000000e+00" purity="3.7743756175041199e-01" nType="-1"/>
      </Node>
    </BinaryTree>
    <BinaryTree type="DecisionTree" boostWeight="7.1559373987328159e-02" itree="42">
      <Node pos="s" depth="0" NCoef="0" IVar="5" Cut="4.9863352775573730e+00" cType="1" res="-9.9000000000000000e+01" rms="0.0000000000000000e+00" purity="4.8247966170310974e-01" nType="0">
        <Node pos="l" depth="1" NCoef="0" IVar="2" Cut="2.7559475097656250e+03" cType="0" res="-9.9000000000000000e+01" rms="0.0000000000000000e+00" purity="4.9152117967605591e-01" nType="0">
          <Node pos="l" depth="2" NCoef="0" IVar="7" Cut="3.3720991611480713e+00" cType="0" res="-9.9000000000000000e+01" rms="0.0000000000000000e+00" purity="5.0875425338745117e-01" nType="0">
            <Node pos="l" depth="3" NCoef="0" IVar="-1" Cut="0.0000000000000000e+00" cType="1" res="-9.9000000000000000e+01" rms="0.0000000000000000e+00" purity="5.4872238636016846e-01" nType="1"/>
            <Node pos="r" depth="3" NCoef="0" IVar="-1" Cut="0.0000000000000000e+00" cType="1" res="-9.9000000000000000e+01" rms="0.0000000000000000e+00" purity="4.9286502599716187e-01" nType="-1"/>
          </Node>
          <Node pos="r" depth="2" NCoef="0" IVar="-1" Cut="3.6199123859405518e+00" cType="1" res="-9.9000000000000000e+01" rms="0.0000000000000000e+00" purity="4.5071873068809509e-01" nType="-1"/>
        </Node>
        <Node pos="r" depth="1" NCoef="0" IVar="-1" Cut="0.0000000000000000e+00" cType="1" res="-9.9000000000000000e+01" rms="0.0000000000000000e+00" purity="3.5491698980331421e-01" nType="-1"/>
      </Node>
    </BinaryTree>
    <BinaryTree type="DecisionTree" boostWeight="7.0980515940279501e-02" itree="43">
      <Node pos="s" depth="0" NCoef="0" IVar="11" Cut="3.4315292358398438e+01" cType="1" res="-9.9000000000000000e+01" rms="0.0000000000000000e+00" purity="4.9578943848609924e-01" nType="0">
        <Node pos="l" depth="1" NCoef="0" IVar="9" Cut="3.6083681583404541e+00" cType="0" res="-9.9000000000000000e+01" rms="0.0000000000000000e+00" purity="5.0215768814086914e-01" nType="0">
          <Node pos="l" depth="2" NCoef="0" IVar="8" Cut="3.3224101066589355e+00" cType="0" res="-9.9000000000000000e+01" rms="0.0000000000000000e+00" purity="5.4487413167953491e-01" nType="0">
            <Node pos="l" depth="3" NCoef="0" IVar="-1" Cut="0.0000000000000000e+00" cType="1" res="-9.9000000000000000e+01" rms="0.0000000000000000e+00" purity="5.7541835308074951e-01" nType="1"/>
            <Node pos="r" depth="3" NCoef="0" IVar="-1" Cut="0.0000000000000000e+00" cType="1" res="-9.9000000000000000e+01" rms="0.0000000000000000e+00" purity="4.7122552990913391e-01" nType="-1"/>
          </Node>
          <Node pos="r" depth="2" NCoef="0" IVar="7" Cut="3.5221610069274902e+00" cType="1" res="-9.9000000000000000e+01" rms="0.0000000000000000e+00" purity="4.8950299620628357e-01" nType="0">
            <Node pos="l" depth="3" NCoef="0" IVar="-1" Cut="0.0000000000000000e+00" cType="1" res="-9.9000000000000000e+01" rms="0.0000000000000000e+00" purity="5.0683724880218506e-01" nType="1"/>
            <Node pos="r" depth="3" NCoef="0" IVar="-1" Cut="0.0000000000000000e+00" cType="1" res="-9.9000000000000000e+01" rms="0.0000000000000000e+00" purity="4.0414255857467651e-01" nType="-1"/>
          </Node>
        </Node>
        <Node pos="r" depth="1" NCoef="0" IVar="-1" Cut="0.0000000000000000e+00" cType="1" res="-9.9000000000000000e+01" rms="0.0000000000000000e+00" purity="3.9198073744773865e-01" nType="-1"/>
      </Node>
    </BinaryTree>
    <BinaryTree type="DecisionTree" boostWeight="9.5489593558188507e-02" itree="44">
      <Node pos="s" depth="0" NCoef="0" IVar="0" Cut="3.4094187011718750e+03" cType="0" res="-9.9000000000000000e+01" rms="0.0000000000000000e+00" purity="4.8837935924530029e-01" nType="0">
        <Node pos="l" depth="1" NCoef="0" IVar="4" Cut="1.6357734375000000e+03" cType="0" res="-9.9000000000000000e+01" rms="0.0000000000000000e+00" purity="5.0574028491973877e-01" nType="0">
          <Node pos="l" depth="2" NCoef="0" IVar="-1" Cut="0.0000000000000000e+00" cType="1" res="-9.9000000000000000e+01" rms="0.0000000000000000e+00" purity="5.7698428630828857e-01" nType="1"/>
          <Node pos="r" depth="2" NCoef="0" IVar="0" Cut="5.4411518554687500e+03" cType="1" res="-9.9000000000000000e+01" rms="0.0000000000000000e+00" purity="4.9843800067901611e-01" nType="0">
            <Node pos="l" depth="3" NCoef="0" IVar="-1" Cut="0.0000000000000000e+00" cType="1" res="-9.9000000000000000e+01" rms="0.0000000000000000e+00" purity="5.5219703912734985e-01" nType="1"/>
            <Node pos="r" depth="3" NCoef="0" IVar="-1" Cut="0.0000000000000000e+00" cType="1" res="-9.9000000000000000e+01" rms="0.0000000000000000e+00" purity="4.8148441314697266e-01" nType="-1"/>
          </Node>
        </Node>
        <Node pos="r" depth="1" NCoef="0" IVar="3" Cut="2.0502822265625000e+03" cType="1" res="-9.9000000000000000e+01" rms="0.0000000000000000e+00" purity="4.4400283694267273e-01" nType="0">
          <Node pos="l" depth="2" NCoef="0" IVar="0" Cut="1.2969866943359375e+03" cType="0" res="-9.9000000000000000e+01" rms="0.0000000000000000e+00" purity="5.1674920320510864e-01" nType="0">
            <Node pos="l" depth="3" NCoef="0" IVar="-1" Cut="0.0000000000000000e+00" cType="1" res="-9.9000000000000000e+01" rms="0.0000000000000000e+00" purity="5.7918655872344971e-01" nType="1"/>
            <Node pos="r" depth="3" NCoef="0" IVar="-1" Cut="0.0000000000000000e+00" cType="1" res="-9.9000000000000000e+01" rms="0.0000000000000000e+00" purity="4.5295885205268860e-01" nType="-1"/>
          </Node>
          <Node pos="r" depth="2" NCoef="0" IVar="-1" Cut="1.9514344482421875e+03" cType="0" res="-9.9000000000000000e+01" rms="0.0000000000000000e+00" purity="3.9208945631980896e-01" nType="-1"/>
        </Node>
      </Node>
    </BinaryTree>
    <BinaryTree type="DecisionTree" boostWeight="6.6137609384485069e-02" itree="45">
      <Node pos="s" depth="0" NCoef="0" IVar="5" Cut="4.9749379158020020e+00" cType="1" res="-9.9000000000000000e+01" rms="0.0000000000000000e+00" purity="4.9350962042808533e-01" nType="0">
        <Node pos="l" depth="1" NCoef="0" IVar="4" Cut="1.6357734375000000e+03" cType="0" res="-9.9000000000000000e+01" rms="0.0000000000000000e+00" purity="5.0089710950851440e-01" nType="0">
          <Node pos="l" depth="2" NCoef="0" IVar="-1" Cut="0.0000000000000000e+00" cType="1" res="-9.9000000000000000e+01" rms="0.0000000000000000e+00" purity="5.9075689315795898e-01" nType="1"/>
          <Node pos="r" depth="2" NCoef="0" IVar="1" Cut="3.8323242187500000e+03" cType="0" res="-9.9000000000000000e+01" rms="0.0000000000000000e+00" purity="4.9496755003929138e-01" nType="0">
            <Node pos="l" depth="3" NCoef="0" IVar="-1" Cut="0.0000000000000000e+00" cType="1" res="-9.9000000000000000e+01" rms="0.0000000000000000e+00" purity="5.2084994316101074e-01" nType="1"/>
            <Node pos="r" depth="3" NCoef="0" IVar="-1" Cut="0.0000000000000000e+00" cType="1" res="-9.9000000000000000e+01" rms="0.0000000000000000e+00" purity="4.7458794713020325e-01" nType="-1"/>
          </Node>
        </Node>
        <Node pos="r" depth="1" NCoef="0" IVar="-1" Cut="0.0000000000000000e+00" cType="1" res="-9.9000000000000000e+01" rms="0.0000000000000000e+00" purity="3.9240384101867676e-01" nType="-1"/>
      </Node>
    </BinaryTree>
    <BinaryTree type="DecisionTree" boostWeight="5.5183983237896701e-02" itree="46">
      <Node pos="s" depth="0" NCoef="0" IVar="5" Cut="4.5838203430175781e+00" cType="1" res="-9.9000000000000000e+01" rms="0.0000000000000000e+00" purity="4.9063259363174438e-01" nType="0">
        <Node pos="l" depth="1" NCoef="0" IVar="4" Cut="1.6353005371093750e+03" cType="0" res="-9.9000000000000000e+01" rms="0.0000000000000000e+00" purity="4.9830451607704163e-01" nType="0">
          <Node pos="l" depth="2" NCoef="0" IVar="-1" Cut="0.0000000000000000e+00" cType="1" res="-9.9000000000000000e+01" rms="0.0000000000000000e+00" purity="5.6653749942779541e-01" nType="1"/>
          <Node pos="r" depth="2" NCoef="0" IVar="4" Cut="1.1358095703125000e+03" cType="1" res="-9.9000000000000000e+01" rms="0.0000000000000000e+00" purity="4.9298831820487976e-01" nType="0">
            <Node pos="l" depth="3" NCoef="0" IVar="-1" Cut="0.0000000000000000e+00" cType="1" res="-9.9000000000000000e+01" rms="0.0000000000000000e+00" purity="5.0403499603271484e-01" nType="1"/>
            <Node pos="r" depth="3" NCoef="0" IVar="-1" Cut="0.0000000000000000e+00" cType="1" res="-9.9000000000000000e+01" rms="0.0000000000000000e+00" purity="4.3335586786270142e-01" nType="-1"/>
          </Node>
        </Node>
        <Node pos="r" depth="1" NCoef="0" IVar="0" Cut="1.0185312500000000e+03" cType="0" res="-9.9000000000000000e+01" rms="0.0000000000000000e+00" purity="4.3219178915023804e-01" nType="0">
          <Node pos="l" depth="2" NCoef="0" IVar="-1" Cut="0.0000000000000000e+00" cType="1" res="-9.9000000000000000e+01" rms="0.0000000000000000e+00" purity="5.3170090913772583e-01" nType="1"/>
          <Node pos="r" depth="2" NCoef="0" IVar="-1" Cut="0.0000000000000000e+00" cType="1" res="-9.9000000000000000e+01" rms="0.0000000000000000e+00" purity="3.0620920658111572e-01" nType="-1"/>
        </Node>
      </Node>
    </BinaryTree>
    <BinaryTree type="DecisionTree" boostWeight="7.8226456232874608e-02" itree="47">
      <Node pos="s" depth="0" NCoef="0" IVar="1" Cut="4.0631169433593750e+03" cType="0" res="-9.9000000000000000e+01" rms="0.0000000000000000e+00" purity="4.9562668800354004e-01" nType="0">
        <Node pos="l" depth="1" NCoef="0" IVar="2" Cut="6.5285458984375000e+03" cType="0" res="-9.9000000000000000e+01" rms="0.0000000000000000e+00" purity="5.1600354909896851e-01" nType="0">
          <Node pos="l" depth="2" NCoef="0" IVar="-1" Cut="0.0000000000000000e+00" cType="1" res="-9.9000000000000000e+01" rms="0.0000000000000000e+00" purity="5.9631049633026123e-01" nType="1"/>
          <Node pos="r" depth="2" NCoef="0" IVar="8" Cut="2.9429409503936768e+00" cType="1" res="-9.9000000000000000e+01" rms="0.0000000000000000e+00" purity="4.9734562635421753e-01" nType="0">
            <Node pos="l" depth="3" NCoef="0" IVar="-1" Cut="0.0000000000000000e+00" cType="1" res="-9.9000000000000000e+01" rms="0.0000000000000000e+00" purity="5.2761673927307129e-01" nType="1"/>
            <Node pos="r" depth="3" NCoef="0" IVar="-1" Cut="0.0000000000000000e+00" cType="1" res="-9.9000000000000000e+01" rms="0.0000000000000000e+00" purity="4.7432351112365723e-01" nType="-1"/>
          </Node>
        </Node>
        <Node pos="r" depth="1" NCoef="0" IVar="0" Cut="1.6142337646484375e+03" cType="0" res="-9.9000000000000000e+01" rms="0.0000000000000000e+00" purity="4.8209780454635620e-01" nType="0">
          <Node pos="l" depth="2" NCoef="0" IVar="5" Cut="4.4177508354187012e+00" cType="0" res="-9.9000000000000000e+01" rms="0.0000000000000000e+00" purity="4.9879619479179382e-01" nType="0">
            <Node pos="l" depth="3" NCoef="0" IVar="-1" Cut="0.0000000000000000e+00" cType="1" res="-9.9000000000000000e+01" rms="0.0000000000000000e+00" purity="5.9604972600936890e-01" nType="1"/>
            <Node pos="r" depth="3" NCoef="0" IVar="-1" Cut="0.0000000000000000e+00" cType="1" res="-9.9000000000000000e+01" rms="0.0000000000000000e+00" purity="4.8402228951454163e-01" nType="-1"/>
          </Node>
          <Node pos="r" depth="2" NCoef="0" IVar="-1" Cut="5.0603070259094238e+00" cType="1" res="-9.9000000000000000e+01" rms="0.0000000000000000e+00" purity="4.0736731886863708e-01" nType="-1"/>
        </Node>
      </Node>
    </BinaryTree>
    <BinaryTree type="DecisionTree" boostWeight="7.5242317925900540e-02" itree="48">
      <Node pos="s" depth="0" NCoef="0" IVar="11" Cut="2.8569988250732422e+01" cType="1" res="-9.9000000000000000e+01" rms="0.0000000000000000e+00" purity="4.9140897393226624e-01" nType="0">
        <Node pos="l" depth="1" NCoef="0" IVar="9" Cut="3.2965168952941895e+00" cType="0" res="-9.9000000000000000e+01" rms="0.0000000000000000e+00" purity="4.9673050642013550e-01" nType="0">
          <Node pos="l" depth="2" NCoef="0" IVar="0" Cut="1.5873934326171875e+03" cType="0" res="-9.9000000000000000e+01" rms="0.0000000000000000e+00" purity="5.2490711212158203e-01" nType="0">
            <Node pos="l" depth="3" NCoef="0" IVar="-1" Cut="0.0000000000000000e+00" cType="1" res="-9.9000000000000000e+01" rms="0.0000000000000000e+00" purity="5.4305088520050049e-01" nType="1"/>
            <Node pos="r" depth="3" NCoef="0" IVar="-1" Cut="0.0000000000000000e+00" cType="1" res="-9.9000000000000000e+01" rms="0.0000000000000000e+00" purity="4.1973662376403809e-01" nType="-1"/>
          </Node>
          <Node pos="r" depth="2" NCoef="0" IVar="5" Cut="3.2929308414459229e+00" cType="1" res="-9.9000000000000000e+01" rms="0.0000000000000000e+00" purity="4.7605505585670471e-01" nType="0">
            <Node pos="l" depth="3" NCoef="0" IVar="-1" Cut="0.0000000000000000e+00" cType="1" res="-9.9000000000000000e+01" rms="0.0000000000000000e+00" purity="5.0082701444625854e-01" nType="1"/>
            <Node pos="r" depth="3" NCoef="0" IVar="-1" Cut="0.0000000000000000e+00" cType="1" res="-9.9000000000000000e+01" rms="0.0000000000000000e+00" purity="4.4113948941230774e-01" nType="-1"/>
          </Node>
        </Node>
        <Node pos="r" depth="1" NCoef="0" IVar="-1" Cut="0.0000000000000000e+00" cType="1" res="-9.9000000000000000e+01" rms="0.0000000000000000e+00" purity="4.3385422229766846e-01" nType="-1"/>
      </Node>
    </BinaryTree>
    <BinaryTree type="DecisionTree" boostWeight="5.5182791896139644e-02" itree="49">
      <Node pos="s" depth="0" NCoef="0" IVar="8" Cut="3.9132359027862549e+00" cType="1" res="-9.9000000000000000e+01" rms="0.0000000000000000e+00" purity="4.7567319869995117e-01" nType="0">
        <Node pos="l" depth="1" NCoef="0" IVar="5" Cut="4.5716838836669922e+00" cType="1" res="-9.9000000000000000e+01" rms="0.0000000000000000e+00" purity="4.8287114500999451e-01" nType="0">
          <Node pos="l" depth="2" NCoef="0" IVar="0" Cut="7.3748193359375000e+03" cType="1" res="-9.9000000000000000e+01" rms="0.0000000000000000e+00" purity="4.8850306868553162e-01" nType="0">
            <Node pos="l" depth="3" NCoef="0" IVar="-1" Cut="0.0000000000000000e+00" cType="1" res="-9.9000000000000000e+01" rms="0.0000000000000000e+00" purity="5.0402587652206421e-01" nType="1"/>
            <Node pos="r" depth="3" NCoef="0" IVar="-1" Cut="0.0000000000000000e+00" cType="1" res="-9.9000000000000000e+01" rms="0.0000000000000000e+00" purity="4.7328418493270874e-01" nType="-1"/>
          </Node>
          <Node pos="r" depth="2" NCoef="0" IVar="-1" Cut="0.0000000000000000e+00" cType="1" res="-9.9000000000000000e+01" rms="0.0000000000000000e+00" purity="4.3006831407546997e-01" nType="-1"/>
        </Node>
        <Node pos="r" depth="1" NCoef="0" IVar="-1" Cut="0.0000000000000000e+00" cType="1" res="-9.9000000000000000e+01" rms="0.0000000000000000e+00" purity="4.1189041733741760e-01" nType="-1"/>
      </Node>
    </BinaryTree>
    <BinaryTree type="DecisionTree" boostWeight="9.1535605174960719e-02" itree="50">
      <Node pos="s" depth="0" NCoef="0" IVar="4" Cut="6.2508312988281250e+02" cType="0" res="-9.9000000000000000e+01" rms="0.0000000000000000e+00" purity="4.9607124924659729e-01" nType="0">
        <Node pos="l" depth="1" NCoef="0" IVar="11" Cut="2.0059446334838867e+01" cType="0" res="-9.9000000000000000e+01" rms="0.0000000000000000e+00" purity="5.1564359664916992e-01" nType="0">
          <Node pos="l" depth="2" NCoef="0" IVar="6" Cut="3.1039216518402100e+00" cType="1" res="-9.9000000000000000e+01" rms="0.0000000000000000e+00" purity="5.7074004411697388e-01" nType="0">
            <Node pos="l" depth="3" NCoef="0" IVar="-1" Cut="0.0000000000000000e+00" cType="1" res="-9.9000000000000000e+01" rms="0.0000000000000000e+00" purity="6.3746213912963867e-01" nType="1"/>
            <Node pos="r" depth="3" NCoef="0" IVar="-1" Cut="0.0000000000000000e+00" cType="1" res="-9.9000000000000000e+01" rms="0.0000000000000000e+00" purity="4.8279076814651489e-01" nType="-1"/>
          </Node>
          <Node pos="r" depth="2" NCoef="0" IVar="3" Cut="4.9974306640625000e+03" cType="1" res="-9.9000000000000000e+01" rms="0.0000000000000000e+00" purity="5.0450325012207031e-01" nType="0">
            <Node pos="l" depth="3" NCoef="0" IVar="-1" Cut="0.0000000000000000e+00" cType="1" res="-9.9000000000000000e+01" rms="0.0000000000000000e+00" purity="5.2136987447738647e-01" nType="1"/>
            <Node pos="r" depth="3" NCoef="0" IVar="-1" Cut="0.0000000000000000e+00" cType="1" res="-9.9000000000000000e+01" rms="0.0000000000000000e+00" purity="4.6407535672187805e-01" nType="-1"/>
          </Node>
        </Node>
        <Node pos="r" depth="1" NCoef="0" IVar="2" Cut="3.1854138183593750e+03" cType="0" res="-9.9000000000000000e+01" rms="0.0000000000000000e+00" purity="4.4463792443275452e-01" nType="0">
          <Node pos="l" depth="2" NCoef="0" IVar="7" Cut="3.1087136268615723e+00" cType="0" res="-9.9000000000000000e+01" rms="0.0000000000000000e+00" purity="4.9563309550285339e-01" nType="0">
            <Node pos="l" depth="3" NCoef="0" IVar="-1" Cut="0.0000000000000000e+00" cType="1" res="-9.9000000000000000e+01" rms="0.0000000000000000e+00" purity="5.3767198324203491e-01" nType="1"/>
            <Node pos="r" depth="3" NCoef="0" IVar="-1" Cut="0.0000000000000000e+00" cType="1" res="-9.9000000000000000e+01" rms="0.0000000000000000e+00" purity="4.5536231994628906e-01" nType="-1"/>
          </Node>
          <Node pos="r" depth="2" NCoef="0" IVar="-1" Cut="3.1281745605468750e+03" cType="0" res="-9.9000000000000000e+01" rms="0.0000000000000000e+00" purity="4.0417391061782837e-01" nType="-1"/>
        </Node>
      </Node>
    </BinaryTree>
    <BinaryTree type="DecisionTree" boostWeight="7.1865068906568963e-02" itree="51">
      <Node pos="s" depth="0" NCoef="0" IVar="5" Cut="3.5001237392425537e+00" cType="1" res="-9.9000000000000000e+01" rms="0.0000000000000000e+00" purity="5.0062590837478638e-01" nType="0">
        <Node pos="l" depth="1" NCoef="0" IVar="6" Cut="2.3523354530334473e+00" cType="1" res="-9.9000000000000000e+01" rms="0.0000000000000000e+00" purity="5.1873099803924561e-01" nType="0">
          <Node pos="l" depth="2" NCoef="0" IVar="-1" Cut="0.0000000000000000e+00" cType="1" res="-9.9000000000000000e+01" rms="0.0000000000000000e+00" purity="6.0309690237045288e-01" nType="1"/>
          <Node pos="r" depth="2" NCoef="0" IVar="6" Cut="2.8859486579895020e+00" cType="0" res="-9.9000000000000000e+01" rms="0.0000000000000000e+00" purity="5.0624865293502808e-01" nType="0">
            <Node pos="l" depth="3" NCoef="0" IVar="-1" Cut="0.0000000000000000e+00" cType="1" res="-9.9000000000000000e+01" rms="0.0000000000000000e+00" purity="5.3643292188644409e-01" nType="1"/>
            <Node pos="r" depth="3" NCoef="0" IVar="-1" Cut="0.0000000000000000e+00" cType="1" res="-9.9000000000000000e+01" rms="0.0000000000000000e+00" purity="4.7642856836318970e-01" nType="-1"/>
          </Node>
        </Node>
        <Node pos="r" depth="1" NCoef="0" IVar="11" Cut="2.2903881072998047e+01" cType="1" res="-9.9000000000000000e+01" rms="0.0000000000000000e+00" purity="4.8243302106857300e-01" nType="0">
          <Node pos="l" depth="2" NCoef="0" IVar="1" Cut="2.5209826660156250e+03" cType="1" res="-9.9000000000000000e+01" rms="0.0000000000000000e+00" purity="4.9551010131835938e-01" nType="0">
            <Node pos="l" depth="3" NCoef="0" IVar="-1" Cut="0.0000000000000000e+00" cType="1" res="-9.9000000000000000e+01" rms="0.0000000000000000e+00" purity="5.2429950237274170e-01" nType="1"/>
            <Node pos="r" depth="3" NCoef="0" IVar="-1" Cut="0.0000000000000000e+00" cType="1" res="-9.9000000000000000e+01" rms="0.0000000000000000e+00" purity="4.8046106100082397e-01" nType="-1"/>
          </Node>
          <Node pos="r" depth="2" NCoef="0" IVar="-1" Cut="0.0000000000000000e+00" cType="1" res="-9.9000000000000000e+01" rms="0.0000000000000000e+00" purity="3.8157072663307190e-01" nType="-1"/>
        </Node>
      </Node>
    </BinaryTree>
    <BinaryTree type="DecisionTree" boostWeight="9.8986451581787357e-02" itree="52">
      <Node pos="s" depth="0" NCoef="0" IVar="9" Cut="3.0691387653350830e+00" cType="0" res="-9.9000000000000000e+01" rms="0.0000000000000000e+00" purity="4.9846306443214417e-01" nType="0">
        <Node pos="l" depth="1" NCoef="0" IVar="8" Cut="2.6973419189453125e+00" cType="0" res="-9.9000000000000000e+01" rms="0.0000000000000000e+00" purity="5.1772040128707886e-01" nType="0">
          <Node pos="l" depth="2" NCoef="0" IVar="7" Cut="3.6735601425170898e+00" cType="1" res="-9.9000000000000000e+01" rms="0.0000000000000000e+00" purity="5.3423607349395752e-01" nType="0">
            <Node pos="l" depth="3" NCoef="0" IVar="-1" Cut="0.0000000000000000e+00" cType="1" res="-9.9000000000000000e+01" rms="0.0000000000000000e+00" purity="5.6142890453338623e-01" nType="1"/>
            <Node pos="r" depth="3" NCoef="0" IVar="-1" Cut="0.0000000000000000e+00" cType="1" res="-9.9000000000000000e+01" rms="0.0000000000000000e+00" purity="4.8279547691345215e-01" nType="-1"/>
          </Node>
          <Node pos="r" depth="2" NCoef="0" IVar="-1" Cut="0.0000000000000000e+00" cType="1" res="-9.9000000000000000e+01" rms="0.0000000000000000e+00" purity="3.9441481232643127e-01" nType="-1"/>
        </Node>
        <Node pos="r" depth="1" NCoef="0" IVar="8" Cut="3.4588360786437988e+00" cType="1" res="-9.9000000000000000e+01" rms="0.0000000000000000e+00" purity="4.7528031468391418e-01" nType="0">
          <Node pos="l" depth="2" NCoef="0" IVar="7" Cut="3.0141711235046387e+00" cType="1" res="-9.9000000000000000e+01" rms="0.0000000000000000e+00" purity="4.9202162027359009e-01" nType="0">
            <Node pos="l" depth="3" NCoef="0" IVar="-1" Cut="0.0000000000000000e+00" cType="1" res="-9.9000000000000000e+01" rms="0.0000000000000000e+00" purity="5.1539057493209839e-01" nType="1"/>
            <Node pos="r" depth="3" NCoef="0" IVar="-1" Cut="0.0000000000000000e+00" cType="1" res="-9.9000000000000000e+01" rms="0.0000000000000000e+00" purity="4.2855599522590637e-01" nType="-1"/>
          </Node>
          <Node pos="r" depth="2" NCoef="0" IVar="-1" Cut="0.0000000000000000e+00" cType="1" res="-9.9000000000000000e+01" rms="0.0000000000000000e+00" purity="3.4075388312339783e-01" nType="-1"/>
        </Node>
      </Node>
    </BinaryTree>
    <BinaryTree type="DecisionTree" boostWeight="9.3261313104589211e-02" itree="53">
      <Node pos="s" depth="0" NCoef="0" IVar="7" Cut="2.9186429977416992e+00" cType="0" res="-9.9000000000000000e+01" rms="0.0000000000000000e+00" purity="4.8903572559356689e-01" nType="0">
        <Node pos="l" depth="1" NCoef="0" IVar="4" Cut="8.6530877685546875e+02" cType="0" res="-9.9000000000000000e+01" rms="0.0000000000000000e+00" purity="5.0187647342681885e-01" nType="0">
          <Node pos="l" depth="2" NCoef="0" IVar="11" Cut="1.4373231887817383e+01" cType="0" res="-9.9000000000000000e+01" rms="0.0000000000000000e+00" purity="5.3577464818954468e-01" nType="0">
            <Node pos="l" depth="3" NCoef="0" IVar="-1" Cut="0.0000000000000000e+00" cType="1" res="-9.9000000000000000e+01" rms="0.0000000000000000e+00" purity="6.2045377492904663e-01" nType="1"/>
            <Node pos="r" depth="3" NCoef="0" IVar="-1" Cut="0.0000000000000000e+00" cType="1" res="-9.9000000000000000e+01" rms="0.0000000000000000e+00" purity="4.9933820962905884e-01" nType="-1"/>
          </Node>
          <Node pos="r" depth="2" NCoef="0" IVar="11" Cut="1.7253402709960938e+01" cType="1" res="-9.9000000000000000e+01" rms="0.0000000000000000e+00" purity="4.8363232612609863e-01" nType="0">
            <Node pos="l" depth="3" NCoef="0" IVar="-1" Cut="0.0000000000000000e+00" cType="1" res="-9.9000000000000000e+01" rms="0.0000000000000000e+00" purity="5.1553845405578613e-01" nType="1"/>
            <Node pos="r" depth="3" NCoef="0" IVar="-1" Cut="0.0000000000000000e+00" cType="1" res="-9.9000000000000000e+01" rms="0.0000000000000000e+00" purity="3.3930593729019165e-01" nType="-1"/>
          </Node>
        </Node>
        <Node pos="r" depth="1" NCoef="0" IVar="6" Cut="2.5250017642974854e+00" cType="1" res="-9.9000000000000000e+01" rms="0.0000000000000000e+00" purity="4.6577355265617371e-01" nType="0">
          <Node pos="l" depth="2" NCoef="0" IVar="-1" Cut="0.0000000000000000e+00" cType="1" res="-9.9000000000000000e+01" rms="0.0000000000000000e+00" purity="5.5484431982040405e-01" nType="1"/>
          <Node pos="r" depth="2" NCoef="0" IVar="-1" Cut="1.0681372070312500e+03" cType="1" res="-9.9000000000000000e+01" rms="0.0000000000000000e+00" purity="4.4084256887435913e-01" nType="-1"/>
        </Node>
      </Node>
    </BinaryTree>
    <BinaryTree type="DecisionTree" boostWeight="4.3388510557277854e-01" itree="54">
      <Node pos="s" depth="0" NCoef="0" IVar="10" Cut="9.9964171648025513e-01" cType="0" res="-9.9000000000000000e+01" rms="0.0000000000000000e+00" purity="4.9138128757476807e-01" nType="0">
        <Node pos="l" depth="1" NCoef="0" IVar="10" Cut="9.9996590614318848e-01" cType="0" res="-9.9000000000000000e+01" rms="0.0000000000000000e+00" purity="5.2011275291442871e-01" nType="0">
          <Node pos="l" depth="2" NCoef="0" IVar="-1" Cut="9.9999678134918213e-01" cType="0" res="-9.9000000000000000e+01" rms="0.0000000000000000e+00" purity="6.3566648960113525e-01" nType="1"/>
          <Node pos="r" depth="2" NCoef="0" IVar="-1" Cut="9.9991953372955322e-01" cType="0" res="-9.9000000000000000e+01" rms="0.0000000000000000e+00" purity="1.4599965512752533e-01" nType="-1"/>
        </Node>
        <Node pos="r" depth="1" NCoef="0" IVar="-1" Cut="0.0000000000000000e+00" cType="1" res="-9.9000000000000000e+01" rms="0.0000000000000000e+00" purity="8.4134684875607491e-03" nType="-1"/>
      </Node>
    </BinaryTree>
    <BinaryTree type="DecisionTree" boostWeight="1.1991756806789276e-01" itree="55">
      <Node pos="s" depth="0" NCoef="0" IVar="4" Cut="7.4664843750000000e+02" cType="0" res="-9.9000000000000000e+01" rms="0.0000000000000000e+00" purity="4.5422101020812988e-01" nType="0">
        <Node pos="l" depth="1" NCoef="0" IVar="11" Cut="2.0004508972167969e+01" cType="0" res="-9.9000000000000000e+01" rms="0.0000000000000000e+00" purity="4.7689479589462280e-01" nType="0">
          <Node pos="l" depth="2" NCoef="0" IVar="-1" Cut="0.0000000000000000e+00" cType="1" res="-9.9000000000000000e+01" rms="0.0000000000000000e+00" purity="5.4302197694778442e-01" nType="1"/>
          <Node pos="r" depth="2" NCoef="0" IVar="11" Cut="4.7689218521118164e+00" cType="1" res="-9.9000000000000000e+01" rms="0.0000000000000000e+00" purity="4.6519806981086731e-01" nType="0">
            <Node pos="l" depth="3" NCoef="0" IVar="-1" Cut="0.0000000000000000e+00" cType="1" res="-9.9000000000000000e+01" rms="0.0000000000000000e+00" purity="5.2767944335937500e-01" nType="1"/>
            <Node pos="r" depth="3" NCoef="0" IVar="-1" Cut="0.0000000000000000e+00" cType="1" res="-9.9000000000000000e+01" rms="0.0000000000000000e+00" purity="4.3857213854789734e-01" nType="-1"/>
          </Node>
        </Node>
        <Node pos="r" depth="1" NCoef="0" IVar="-1" Cut="5.5896234130859375e+02" cType="0" res="-9.9000000000000000e+01" rms="0.0000000000000000e+00" purity="4.3016123771667480e-01" nType="-1"/>
      </Node>
    </BinaryTree>
    <BinaryTree type="DecisionTree" boostWeight="5.6820810651372969e-02" itree="56">
      <Node pos="s" depth="0" NCoef="0" IVar="8" Cut="3.9233283996582031e+00" cType="1" res="-9.9000000000000000e+01" rms="0.0000000000000000e+00" purity="4.8862901329994202e-01" nType="0">
        <Node pos="l" depth="1" NCoef="0" IVar="4" Cut="6.4321417236328125e+02" cType="0" res="-9.9000000000000000e+01" rms="0.0000000000000000e+00" purity="4.9807217717170715e-01" nType="0">
          <Node pos="l" depth="2" NCoef="0" IVar="-1" Cut="3.1453834533691406e+01" cType="0" res="-9.9000000000000000e+01" rms="0.0000000000000000e+00" purity="5.1221448183059692e-01" nType="1"/>
          <Node pos="r" depth="2" NCoef="0" IVar="11" Cut="8.6695165634155273e+00" cType="1" res="-9.9000000000000000e+01" rms="0.0000000000000000e+00" purity="4.6473351120948792e-01" nType="0">
            <Node pos="l" depth="3" NCoef="0" IVar="-1" Cut="0.0000000000000000e+00" cType="1" res="-9.9000000000000000e+01" rms="0.0000000000000000e+00" purity="5.0523388385772705e-01" nType="1"/>
            <Node pos="r" depth="3" NCoef="0" IVar="-1" Cut="0.0000000000000000e+00" cType="1" res="-9.9000000000000000e+01" rms="0.0000000000000000e+00" purity="4.2612236738204956e-01" nType="-1"/>
          </Node>
        </Node>
        <Node pos="r" depth="1" NCoef="0" IVar="-1" Cut="0.0000000000000000e+00" cType="1" res="-9.9000000000000000e+01" rms="0.0000000000000000e+00" purity="3.9219087362289429e-01" nType="-1"/>
      </Node>
    </BinaryTree>
    <BinaryTree type="DecisionTree" boostWeight="1.0182637692843016e-01" itree="57">
      <Node pos="s" depth="0" NCoef="0" IVar="8" Cut="3.6084282398223877e+00" cType="1" res="-9.9000000000000000e+01" rms="0.0000000000000000e+00" purity="4.5440456271171570e-01" nType="0">
        <Node pos="l" depth="1" NCoef="0" IVar="-1" Cut="3.5666162967681885e+00" cType="1" res="-9.9000000000000000e+01" rms="0.0000000000000000e+00" purity="4.6378004550933838e-01" nType="-1"/>
        <Node pos="r" depth="1" NCoef="0" IVar="9" Cut="3.6558570861816406e+00" cType="0" res="-9.9000000000000000e+01" rms="0.0000000000000000e+00" purity="4.2155796289443970e-01" nType="0">
          <Node pos="l" depth="2" NCoef="0" IVar="6" Cut="3.9041717052459717e+00" cType="1" res="-9.9000000000000000e+01" rms="0.0000000000000000e+00" purity="5.0266134738922119e-01" nType="0">
            <Node pos="l" depth="3" NCoef="0" IVar="-1" Cut="0.0000000000000000e+00" cType="1" res="-9.9000000000000000e+01" rms="0.0000000000000000e+00" purity="5.4509121179580688e-01" nType="1"/>
            <Node pos="r" depth="3" NCoef="0" IVar="-1" Cut="0.0000000000000000e+00" cType="1" res="-9.9000000000000000e+01" rms="0.0000000000000000e+00" purity="4.5679333806037903e-01" nType="-1"/>
          </Node>
          <Node pos="r" depth="2" NCoef="0" IVar="-1" Cut="3.6638562679290771e+00" cType="0" res="-9.9000000000000000e+01" rms="0.0000000000000000e+00" purity="3.4226548671722412e-01" nType="-1"/>
        </Node>
      </Node>
    </BinaryTree>
    <BinaryTree type="DecisionTree" boostWeight="1.2060145963012724e-01" itree="58">
      <Node pos="s" depth="0" NCoef="0" IVar="6" Cut="3.9949200153350830e+00" cType="1" res="-9.9000000000000000e+01" rms="0.0000000000000000e+00" purity="4.7636893391609192e-01" nType="0">
        <Node pos="l" depth="1" NCoef="0" IVar="5" Cut="3.7699680328369141e+00" cType="0" res="-9.9000000000000000e+01" rms="0.0000000000000000e+00" purity="4.8379907011985779e-01" nType="0">
          <Node pos="l" depth="2" NCoef="0" IVar="1" Cut="2.8574902343750000e+03" cType="0" res="-9.9000000000000000e+01" rms="0.0000000000000000e+00" purity="5.3034812211990356e-01" nType="0">
            <Node pos="l" depth="3" NCoef="0" IVar="-1" Cut="0.0000000000000000e+00" cType="1" res="-9.9000000000000000e+01" rms="0.0000000000000000e+00" purity="5.9231638908386230e-01" nType="1"/>
            <Node pos="r" depth="3" NCoef="0" IVar="-1" Cut="0.0000000000000000e+00" cType="1" res="-9.9000000000000000e+01" rms="0.0000000000000000e+00" purity="4.6988591551780701e-01" nType="-1"/>
          </Node>
          <Node pos="r" depth="2" NCoef="0" IVar="11" Cut="1.4366597175598145e+01" cType="0" res="-9.9000000000000000e+01" rms="0.0000000000000000e+00" purity="4.6172273159027100e-01" nType="0">
            <Node pos="l" depth="3" NCoef="0" IVar="-1" Cut="0.0000000000000000e+00" cType="1" res="-9.9000000000000000e+01" rms="0.0000000000000000e+00" purity="5.2906334400177002e-01" nType="1"/>
            <Node pos="r" depth="3" NCoef="0" IVar="-1" Cut="0.0000000000000000e+00" cType="1" res="-9.9000000000000000e+01" rms="0.0000000000000000e+00" purity="4.3791922926902771e-01" nType="-1"/>
          </Node>
        </Node>
